/*
 * Copyright (c) 2025 EdgeImpulse Inc.
 *
 * Generated by Edge Impulse and licensed under the applicable Edge Impulse
 * Terms of Service. Community and Professional Terms of Service
 * (https://edgeimpulse.com/legal/terms-of-service) or Enterprise Terms of
 * Service (https://edgeimpulse.com/legal/enterprise-terms-of-service),
 * according to your product plan subscription (the “License”).
 *
 * This software, documentation and other associated files (collectively referred
 * to as the “Software”) is a single SDK variation generated by the Edge Impulse
 * platform and requires an active paid Edge Impulse subscription to use this
 * Software for any purpose.
 *
 * You may NOT use this Software unless you have an active Edge Impulse subscription
 * that meets the eligibility requirements for the applicable License, subject to
 * your full and continued compliance with the terms and conditions of the License,
 * including without limitation any usage restrictions under the applicable License.
 *
 * If you do not have an active Edge Impulse product plan subscription, or if use
 * of this Software exceeds the usage limitations of your Edge Impulse product plan
 * subscription, you are not permitted to use this Software and must immediately
 * delete and erase all copies of this Software within your control or possession.
 * Edge Impulse reserves all rights and remedies available to enforce its rights.
 *
 * Unless required by applicable law or agreed to in writing, the Software is
 * distributed on an "AS IS" BASIS, WITHOUT WARRANTIES OR CONDITIONS OF ANY KIND,
 * either express or implied. See the License for the specific language governing
 * permissions, disclaimers and limitations under the License.
 */
// Generated on: 29.11.2025 17:17:10

#include <stdio.h>
#include <stdlib.h>
#include "edge-impulse-sdk/tensorflow/lite/c/builtin_op_data.h"
#include "edge-impulse-sdk/tensorflow/lite/c/common.h"
#include "edge-impulse-sdk/tensorflow/lite/micro/micro_mutable_op_resolver.h"
#include "edge-impulse-sdk/porting/ei_classifier_porting.h"

#if EI_CLASSIFIER_PRINT_STATE
#if defined(__cplusplus) && EI_C_LINKAGE == 1
extern "C" {
    extern void ei_printf(const char *format, ...);
}
#else
extern void ei_printf(const char *format, ...);
#endif
#endif

#define STRINGIZE(x) #x
#define STRINGIZE_VALUE_OF(x) STRINGIZE(x)

#if defined (__GNUC__)  /* GNU compiler */
#define ALIGN(X) __attribute__((aligned(X)))
#define DEFINE_SECTION(x) __attribute__((section(x)))
#elif defined (_MSC_VER)
#define ALIGN(X) __declspec(align(X))
#elif defined (__TASKING__) /* TASKING Compiler */
#define ALIGN(X) __align(X)
#define DEFINE_SECTION(x) __attribute__((section(x)))
#elif defined (__ARMCC_VERSION) /* Arm Compiler */
#define ALIGN(X) __ALIGNED(x)
#define DEFINE_SECTION(x) __attribute__((section(x)))
#elif defined (__ICCARM__) /* IAR Compiler */
#define ALIGN(x) __attribute__((aligned(x)))
#define DEFINE_SECTION(x) __attribute__((section(x)))
#elif defined (__clang__) /* LLVM/Clang Compiler */
#define ALIGN(X) __ALIGNED(x)
#define DEFINE_SECTION(x) __attribute__((section(x)))
#endif

#if defined(EI_MODEL_SECTION) && (defined(__GNUC__) || defined(__clang__))
#define MODEL_SECTION(X) __attribute__((section(STRINGIZE_VALUE_OF(X))))
#else
#define MODEL_SECTION(X)
#endif

#ifndef EI_MAX_SCRATCH_BUFFER_COUNT
#ifndef CONFIG_IDF_TARGET_ESP32S3
#define EI_MAX_SCRATCH_BUFFER_COUNT 14
#else
#define EI_MAX_SCRATCH_BUFFER_COUNT 28
#endif // CONFIG_IDF_TARGET_ESP32S3
#endif // EI_MAX_SCRATCH_BUFFER_COUNT

#ifndef EI_MAX_OVERFLOW_BUFFER_COUNT
#define EI_MAX_OVERFLOW_BUFFER_COUNT 10
#endif // EI_MAX_OVERFLOW_BUFFER_COUNT

using namespace tflite;
using namespace tflite::ops;
using namespace tflite::ops::micro;

namespace {

#if defined(EI_CLASSIFIER_ALLOCATION_STATIC_HIMAX) || defined(EI_CLASSIFIER_ALLOCATION_STATIC_HIMAX_GNU)
constexpr int kTensorArenaSize = 638416;
#else
constexpr int kTensorArenaSize = 637392;
#endif

#if defined(EI_CLASSIFIER_ALLOCATION_STATIC)
#if defined (EI_TENSOR_ARENA_LOCATION)
uint8_t tensor_arena[kTensorArenaSize] ALIGN(16) DEFINE_SECTION(STRINGIZE_VALUE_OF(EI_TENSOR_ARENA_LOCATION));
#else
uint8_t tensor_arena[kTensorArenaSize] ALIGN(16);
#endif
#elif defined(EI_CLASSIFIER_ALLOCATION_STATIC_HIMAX)
#pragma Bss(".tensor_arena")
uint8_t tensor_arena[kTensorArenaSize] ALIGN(16);
#pragma Bss()
#elif defined(EI_CLASSIFIER_ALLOCATION_STATIC_HIMAX_GNU)
uint8_t tensor_arena[kTensorArenaSize] ALIGN(16) __attribute__((section(".tensor_arena")));
#else
#define EI_CLASSIFIER_ALLOCATION_HEAP 1
uint8_t* tensor_arena = NULL;
#endif

static uint8_t* tensor_boundary;
static uint8_t* current_location;

template <int SZ, class T> struct TfArray {
  int sz; T elem[SZ];
};

enum used_operators_e {
  OP_CONV_2D, OP_DEPTHWISE_CONV_2D, OP_PAD, OP_ADD,  OP_LAST
};

struct TensorInfo_t { // subset of TfLiteTensor used for initialization from constant memory
  TfLiteAllocationType allocation_type;
  TfLiteType type;
  void* data;
  TfLiteIntArray* dims;
  size_t bytes;
  TfLiteQuantization quantization;
};

typedef struct {
  TfLiteTensor tensor;
  int16_t index;
} TfLiteTensorWithIndex;

typedef struct {
  TfLiteEvalTensor tensor;
  int16_t index;
} TfLiteEvalTensorWithIndex;

TfLiteContext ctx{};
static const int MAX_TFL_TENSOR_COUNT = 4;
static TfLiteTensorWithIndex tflTensors[MAX_TFL_TENSOR_COUNT];
static const int MAX_TFL_EVAL_COUNT = 4;
static TfLiteEvalTensorWithIndex tflEvalTensors[MAX_TFL_EVAL_COUNT];
TfLiteRegistration registrations[OP_LAST];

namespace g0 {
const TfArray<4, int> tensor_dimension0 = { 4, { 1,160,160,3 } };
const TfArray<1, float> quant0_scale = { 1, { 0.0039215688593685627, } };
const TfArray<1, int> quant0_zero = { 1, { -128 } };
const TfLiteAffineQuantization quant0 = { (TfLiteFloatArray*)&quant0_scale, (TfLiteIntArray*)&quant0_zero, 0 };
const MODEL_SECTION(EI_MODEL_SECTION) ALIGN(16) int32_t tensor_data1[4*2] = { 
  0, 0, 
  0, 1, 
  0, 1, 
  0, 0, 
};
const TfArray<2, int> tensor_dimension1 = { 2, { 4,2 } };
const MODEL_SECTION(EI_MODEL_SECTION) ALIGN(16) int32_t tensor_data2[96] = { -2995, 5212, 12287, 3737, -4172, -6154, 26416, 2840, 4354, -2146, 14500, -347, -12662, 3062, 19741, 8957, 20006, 7581, -5468, -8741, 6495, 41218, 27631, 25285, 1384, 1407, 5698, 4172, 2975, -6822, 9587, -3423, -374, 6231, 77, 1384, 15208, 7002, -2381, 6499, 13069, 7399, 6847, 15500, 5844, 6890, 2831, 10706, 6419, -7698, -8867, 802, -353, -1796, 3185, -4, 312, -1440, -5402, 14661, -1230, 1979, -1746, -2293, -4805, 10333, 29716, 2572, -3242, 1130, 2214, 2892, 2149, -1727, 875, 15230, -600, 24793, 21963, -1398, 14068, 2604, -583, 2085, 20439, 10745, 6383, 2183, 8171, 5701, -443, -10531, 945, -2670, -2269, -2678, };
const TfArray<1, int> tensor_dimension2 = { 1, { 96 } };
const TfArray<96, float> quant2_scale = { 96, { 0.0002081106067635119, 0.00030177904409356415, 0.00019505211093928665, 0.00023526429140474647, 0.00025337908300571144, 0.00024002630379982293, 0.00012584375508595258, 0.0002511247294023633, 0.00013979359937366098, 0.00030321555095724761, 0.00013721594586968422, 0.00020997707906644791, 0.00020147608302067965, 0.00092723016859963536, 0.00015669848653487861, 0.00012900690489914268, 9.3539289082400501e-05, 0.00019114527094643563, 0.0003573227149900049, 0.00019464142678771168, 9.537322330288589e-05, 6.5692365751601756e-05, 0.0001111081728595309, 6.6592336224857718e-05, 0.00014097373059485108, 0.00034427002537995577, 0.00052372843492776155, 0.0002598106802906841, 0.00017511387704871595, 0.00028956166352145374, 0.00015339574019890279, 0.00022231930051930249, 0.00015718369104433805, 0.00018576266302261502, 0.00023305200738832355, 0.00017781474161893129, 0.00012551588588394225, 0.00015388020256068558, 0.00026114925276488066, 0.00027386008878238499, 9.8257558420300484e-05, 0.00035111641045659781, 0.00022032990818843246, 0.00014987494796514511, 0.00032800048938952386, 0.00014682869368698448, 0.0001788741210475564, 0.00020255704293958843, 0.00021061727602500468, 0.00017090962501242757, 0.00017802149523049593, 0.0001275030808756128, 0.00040772685315459967, 0.00017123090219683945, 0.00024567791842855513, 0.00025154367904178798, 0.00032570894109085202, 0.00018408708274364471, 0.0002846481220331043, 0.00012638552288990468, 0.00060403853422030807, 0.00032890276634134352, 0.00015693817113060504, 0.00033889740006998181, 0.00038881986984051764, 0.00018566340440884233, 7.3116600106004626e-05, 0.00015638525655958802, 0.00035725813359022141, 0.00029201037250459194, 0.00018078915309160948, 0.0001810652029234916, 0.00063132750801742077, 0.00024231206043623388, 0.00019668351160362363, 0.00014203616592567414, 0.0002136574184987694, 7.5705072958953679e-05, 8.3076709415763617e-05, 0.00013399931776802987, 0.00010441375343361869, 0.0001271092623937875, 0.00014175567775964737, 0.00011892704787896946, 8.9002787717618048e-05, 0.00022223153791856021, 0.00036827012081630528, 0.00013632462651003152, 8.664068445796147e-05, 0.00036033627111464739, 0.00020702756592072546, 0.00018777321383822709, 0.00023374955344479531, 0.00038662221049889922, 0.00027551813400350511, 0.00014699238818138838, } };
const TfArray<96, int> quant2_zero = { 96, { 0,0,0,0,0,0,0,0,0,0,0,0,0,0,0,0,0,0,0,0,0,0,0,0,0,0,0,0,0,0,0,0,0,0,0,0,0,0,0,0,0,0,0,0,0,0,0,0,0,0,0,0,0,0,0,0,0,0,0,0,0,0,0,0,0,0,0,0,0,0,0,0,0,0,0,0,0,0,0,0,0,0,0,0,0,0,0,0,0,0,0,0,0,0,0,0 } };
const TfLiteAffineQuantization quant2 = { (TfLiteFloatArray*)&quant2_scale, (TfLiteIntArray*)&quant2_zero, 0 };
const MODEL_SECTION(EI_MODEL_SECTION) ALIGN(16) int8_t tensor_data3[96*1*1*16] = { 
  /* [0][0][][] */ -29,91,-2,-127,-44,-31,-32,-68,-19,16,3,77,20,-58,-7,50, 
  /* [1][0][][] */ -37,22,-64,-4,-30,-29,28,-85,62,54,-60,19,3,3,42,-127, 
  /* [2][0][][] */ 1,10,-37,38,44,19,-56,-63,127,-34,-3,10,-16,96,-71,23, 
  /* [3][0][][] */ 47,-67,5,-112,8,-29,-8,-2,114,-3,75,44,-8,46,20,127, 
  /* [4][0][][] */ -81,50,14,41,7,-19,-2,41,3,9,21,-22,-127,-13,-16,28, 
  /* [5][0][][] */ 3,67,117,5,22,80,-78,77,-55,73,-25,-33,36,-46,-127,21, 
  /* [6][0][][] */ 36,-58,121,-127,40,1,-43,99,-76,-102,55,-35,4,91,-21,82, 
  /* [7][0][][] */ 37,117,-27,-59,94,13,4,-50,127,96,-28,20,28,-23,63,46, 
  /* [8][0][][] */ 12,-85,10,-85,23,-56,18,-73,25,60,72,-8,17,127,79,59, 
  /* [9][0][][] */ 8,-32,-5,127,42,-8,40,-61,-64,111,31,-21,-6,-64,-7,-8, 
  /* [10][0][][] */ -8,23,-46,-127,10,0,-10,36,32,-34,18,-27,-16,-43,-2,29, 
  /* [11][0][][] */ 2,17,23,-19,81,-30,85,-58,-84,38,-2,30,0,127,-69,-31, 
  /* [12][0][][] */ 69,-18,-125,-15,31,-80,27,23,16,58,-78,-48,-39,127,-2,32, 
  /* [13][0][][] */ -17,7,-25,10,4,-127,-3,18,4,-12,7,-1,12,-14,10,11, 
  /* [14][0][][] */ 25,-26,95,-32,62,6,-127,-93,-19,-44,28,18,8,-61,-18,-32, 
  /* [15][0][][] */ -85,21,-18,-50,-1,2,127,58,-37,45,77,-28,11,86,64,2, 
  /* [16][0][][] */ 14,62,127,95,1,19,89,74,-92,14,-73,-8,15,10,9,-82, 
  /* [17][0][][] */ -40,-111,-15,30,-73,-24,-60,15,-127,-31,15,-46,-3,41,62,-38, 
  /* [18][0][][] */ 4,42,6,66,42,5,21,-4,71,42,-30,-31,14,127,56,21, 
  /* [19][0][][] */ 11,-25,41,12,108,20,-101,-69,-103,-80,-38,-127,-40,-46,0,-39, 
  /* [20][0][][] */ 98,-36,-60,-34,10,-127,12,24,-52,35,-109,-14,28,6,23,-1, 
  /* [21][0][][] */ 74,-24,77,-18,-16,-2,-10,104,-8,-102,76,35,-1,127,49,87, 
  /* [22][0][][] */ -24,41,-39,127,-54,5,89,67,-7,35,-13,41,-2,8,30,-1, 
  /* [23][0][][] */ 70,-2,110,-95,60,-16,-13,54,14,17,3,-23,4,-16,-127,29, 
  /* [24][0][][] */ -127,40,11,-17,3,106,26,-20,-3,20,99,-9,-77,17,58,-28, 
  /* [25][0][][] */ 26,24,13,21,12,9,65,-50,-4,-127,-13,-19,-11,-29,12,20, 
  /* [26][0][][] */ -37,-4,-2,6,-49,-10,-39,-35,-111,-36,2,-36,10,127,-35,53, 
  /* [27][0][][] */ -5,29,7,66,38,-29,-17,-32,56,6,-26,0,7,127,-9,13, 
  /* [28][0][][] */ 16,70,58,62,127,-8,31,37,-91,-21,-50,-34,19,93,47,-35, 
  /* [29][0][][] */ 0,-2,8,16,30,-1,9,37,-20,-12,-15,-127,-1,-15,-18,5, 
  /* [30][0][][] */ -20,81,-49,73,-39,-19,42,-127,-44,56,-17,-3,57,37,78,86, 
  /* [31][0][][] */ -37,-21,-12,-68,-5,-1,-48,-103,21,78,-12,-127,-32,-46,4,21, 
  /* [32][0][][] */ -127,-78,-10,59,52,37,-13,7,-3,-43,-102,45,73,2,61,70, 
  /* [33][0][][] */ -12,-40,-41,-7,-92,-10,-81,0,65,17,15,-48,30,-117,127,31, 
  /* [34][0][][] */ 48,-7,65,24,44,17,-47,82,-83,-47,67,21,13,-7,-17,127, 
  /* [35][0][][] */ -42,54,-75,18,-12,-21,30,-121,88,94,-84,2,6,-7,82,-127, 
  /* [36][0][][] */ -33,41,13,127,37,24,122,26,-12,43,-27,-11,-11,23,-67,-51, 
  /* [37][0][][] */ 4,-9,11,-68,-1,-4,-37,-49,-76,-11,1,-9,2,-127,61,-35, 
  /* [38][0][][] */ 42,90,-10,-49,127,-1,31,-38,113,74,-16,-3,9,-28,45,14, 
  /* [39][0][][] */ -28,63,-9,-127,-15,8,-44,34,46,-72,-25,-18,13,73,44,29, 
  /* [40][0][][] */ 0,-26,19,-94,-3,-16,-6,-39,-127,-1,-11,-28,-5,-119,91,-67, 
  /* [41][0][][] */ -9,-17,-44,-17,2,-33,19,-9,-29,15,-45,-8,-127,11,28,33, 
  /* [42][0][][] */ 127,87,-30,-20,-75,-51,-20,-52,4,22,84,-52,-61,48,99,-112, 
  /* [43][0][][] */ -12,112,-77,-4,64,-20,115,-37,54,88,-46,-4,28,-127,-78,-55, 
  /* [44][0][][] */ -23,-13,8,-38,55,2,-88,-127,-18,-9,12,5,-3,-35,66,-62, 
  /* [45][0][][] */ -10,45,-127,-40,25,-72,25,-73,9,30,4,-76,26,-24,52,-21, 
  /* [46][0][][] */ 8,-1,-19,-90,-13,12,21,-30,-119,-23,9,14,-10,-127,68,-33, 
  /* [47][0][][] */ 22,48,24,-16,127,-14,-26,16,-54,40,0,21,5,1,113,-27, 
  /* [48][0][][] */ -127,-75,-22,34,65,16,11,-20,-1,-17,-108,41,61,8,77,51, 
  /* [49][0][][] */ 15,12,100,81,127,-1,47,31,-127,-51,-39,-81,14,124,20,-62, 
  /* [50][0][][] */ 29,-20,-92,-12,28,-127,-41,-13,-20,-25,-4,-42,36,-17,-7,11, 
  /* [51][0][][] */ 7,38,43,12,28,4,1,24,-127,59,6,-115,12,-114,-24,88, 
  /* [52][0][][] */ 3,52,0,51,46,-1,22,33,68,85,-28,-53,36,127,63,22, 
  /* [53][0][][] */ -7,-51,-21,-18,-92,-9,-81,-2,49,22,15,-59,30,-127,124,17, 
  /* [54][0][][] */ 57,-15,-46,9,127,82,-119,-46,-82,-7,-34,-78,1,-45,-15,-40, 
  /* [55][0][][] */ 48,-8,5,2,38,-40,-68,-127,-36,-72,-59,10,-6,-27,19,-7, 
  /* [56][0][][] */ -18,14,24,-21,-6,-25,-93,67,-10,127,-3,-14,28,5,-4,8, 
  /* [57][0][][] */ -1,18,-49,-22,-56,-53,127,91,-28,28,-13,-3,30,24,125,-9, 
  /* [58][0][][] */ 48,23,-127,33,92,102,-34,50,-105,-40,-2,8,-35,25,-1,-22, 
  /* [59][0][][] */ -101,69,110,21,-77,-66,127,125,21,7,30,-17,16,11,74,0, 
  /* [60][0][][] */ 7,-6,-52,-2,19,-127,-22,-2,-9,-17,-3,-23,28,-16,3,7, 
  /* [61][0][][] */ 21,-8,26,127,78,21,26,6,-99,-1,15,41,-12,22,34,-53, 
  /* [62][0][][] */ -47,127,18,-46,-29,-9,-67,56,-21,-61,-83,-54,-7,-92,-55,-38, 
  /* [63][0][][] */ -42,27,-28,127,-80,12,-71,-34,-62,-25,-24,-38,26,66,40,39, 
  /* [64][0][][] */ 9,2,3,41,3,10,-14,62,26,3,-16,-44,-11,-127,50,-3, 
  /* [65][0][][] */ -16,-39,9,-127,41,-36,61,-34,-10,47,10,-110,-14,1,21,-47, 
  /* [66][0][][] */ 32,-20,66,-23,3,3,-7,109,7,-73,43,33,2,127,18,75, 
  /* [67][0][][] */ 0,52,-16,-127,-13,-3,-59,34,81,-96,-28,-6,30,80,74,35, 
  /* [68][0][][] */ -30,36,127,12,11,5,-6,0,-40,-19,-19,-35,13,-19,86,-32, 
  /* [69][0][][] */ 127,80,-16,-3,-88,-36,-28,-38,4,20,92,-57,-64,58,69,-98, 
  /* [70][0][][] */ 40,7,-54,-10,-27,26,53,127,-33,91,-35,7,12,63,-27,19, 
  /* [71][0][][] */ 8,-3,-7,10,4,-79,2,21,-35,17,-79,5,-127,-2,42,49, 
  /* [72][0][][] */ 11,20,-127,13,9,12,28,92,-40,-25,8,-8,22,15,-1,6, 
  /* [73][0][][] */ -48,22,41,4,47,-36,-76,-127,20,-74,37,-18,14,-46,40,-16, 
  /* [74][0][][] */ 1,35,38,127,19,-7,-83,85,-70,16,-49,45,21,-121,37,-95, 
  /* [75][0][][] */ -13,29,-55,13,13,-8,20,-18,123,25,-12,-3,13,127,-40,1, 
  /* [76][0][][] */ 0,-14,-2,18,2,-13,-12,61,16,-30,-20,-127,-5,-6,8,13, 
  /* [77][0][][] */ -13,29,-17,127,-51,20,82,99,11,41,-8,37,-14,-17,-10,-12, 
  /* [78][0][][] */ 4,3,29,-119,49,-33,-36,43,25,-50,8,-38,27,127,21,47, 
  /* [79][0][][] */ -18,-94,-77,-58,-85,-6,24,-81,127,18,27,56,18,41,46,-51, 
  /* [80][0][][] */ -46,-7,127,-104,18,-44,18,-106,-71,53,-48,-121,34,113,96,-50, 
  /* [81][0][][] */ -47,45,-127,27,70,-124,-14,55,-5,-44,64,-2,26,3,10,-4, 
  /* [82][0][][] */ 127,-9,-5,16,13,-113,-20,17,-18,-10,-102,-3,106,6,-5,25, 
  /* [83][0][][] */ -38,79,-120,-87,-36,-18,46,-127,68,52,-46,-126,16,53,53,105, 
  /* [84][0][][] */ -35,33,70,-36,5,-28,65,-127,-44,48,-12,-62,32,54,67,-3, 
  /* [85][0][][] */ -85,127,27,-123,-76,-31,-27,-5,-57,-4,-70,24,6,-11,-95,-28, 
  /* [86][0][][] */ -7,6,-34,0,-30,-31,127,24,0,-27,-1,9,7,30,85,-18, 
  /* [87][0][][] */ -23,-40,3,-121,9,-35,52,-16,-5,19,-10,-127,-18,3,10,-40, 
  /* [88][0][][] */ 105,-28,46,-10,26,-124,2,34,-57,40,-127,-56,43,34,79,0, 
  /* [89][0][][] */ 24,-23,-42,-52,26,-13,-25,-8,-49,6,34,-68,127,-7,29,-44, 
  /* [90][0][][] */ -1,-54,39,-63,67,-4,-68,87,61,-86,-38,-25,-12,121,21,-127, 
  /* [91][0][][] */ -44,-8,-23,-42,19,-16,-30,-97,8,61,-9,-127,-31,-15,3,11, 
  /* [92][0][][] */ -23,21,40,16,0,-127,13,1,1,-24,1,-14,3,-25,19,6, 
  /* [93][0][][] */ 39,-21,127,-12,-52,56,28,-29,-21,25,-71,-19,-22,-2,31,3, 
  /* [94][0][][] */ 28,1,-14,-22,26,-6,-15,-4,-32,-19,15,-58,127,-17,31,-32, 
  /* [95][0][][] */ 127,91,-3,34,-93,-15,-66,-5,-26,-18,89,-44,-43,27,77,-73, 
};
const TfArray<4, int> tensor_dimension3 = { 4, { 96,1,1,16 } };
const TfArray<96, float> quant3_scale = { 96, { 0.00075831293361261487, 0.0010996217606589198, 0.00071073044091463089, 0.00085725547978654504, 0.00092326215235516429, 0.0008746072999201715, 0.00045854918425902724, 0.00091504765441641212, 0.00050937960622832179, 0.0011048561427742243, 0.00049998715985566378, 0.00076511397492140532, 0.00073413806967437267, 0.003378639230504632, 0.00057097757235169411, 0.00047007505781948566, 0.00034083824721165001, 0.00069649470970034599, 0.0013020116603001952, 0.00070923398016020656, 0.00034752071951515973, 0.00023936967772897333, 0.00040485570207238197, 0.00024264899548143148, 0.00051367975538596511, 0.0012544502969831228, 0.0019083605147898197, 0.00094669760437682271, 0.00063807953847572207, 0.0010551040759310126, 0.00055894302204251289, 0.00081008655251935124, 0.00057274557184427977, 0.00067688158014789224, 0.00084919435903429985, 0.00064792094053700566, 0.00045735450112260878, 0.00056070834398269653, 0.00095157499890774488, 0.00099789071828126907, 0.00035803066566586494, 0.0012793971691280603, 0.00080283760325983167, 0.00054611399536952376, 0.0011951674241572618, 0.00053501402726396918, 0.00065178109798580408, 0.00073807686567306519, 0.00076744676334783435, 0.00062276009703055024, 0.00064867432229220867, 0.0004645954177249223, 0.0014856741763651371, 0.0006239307695068419, 0.00089520064648240805, 0.00091657426673918962, 0.0011868175351992249, 0.00067077606217935681, 0.0010372002143412828, 0.00046052329707890749, 0.0022009941749274731, 0.0011984551092609763, 0.00057185092009603977, 0.00123487354721874, 0.001416780985891819, 0.00067651987774297595, 0.00026642211014404893, 0.00056983623653650284, 0.001301776384934783, 0.001064026728272438, 0.00065875909058377147, 0.0006597649771720171, 0.0023004296235740185, 0.00088293611770495772, 0.00071667489828541875, 0.000517551030497998, 0.00077852437971159816, 0.00027585396310314536, 0.00030271473224274814, 0.00048826637794263661, 0.00038046258850954473, 0.00046316045336425304, 0.00051652902038767934, 0.0004333461110945791, 0.00032430814462713897, 0.00080976675963029265, 0.0013419018359854817, 0.00049673934699967504, 0.00031570112332701683, 0.001312992419116199, 0.00075436657061800361, 0.00068420759635046124, 0.00085173605475574732, 0.0014087731251493096, 0.0010039323242381215, 0.0005356105393730104, } };
const TfLiteAffineQuantization quant3 = { (TfLiteFloatArray*)&quant3_scale, (TfLiteIntArray*)&g0::quant2_zero, 0 };
const MODEL_SECTION(EI_MODEL_SECTION) ALIGN(16) int32_t tensor_data4[16] = { -9251, 15722, -18720, -2664, -10261, 10657, 28635, -54641, -989, 16530, 24448, 15788, -11000, 13621, -6505, 11313, };
const TfArray<1, int> tensor_dimension4 = { 1, { 16 } };
const TfArray<16, float> quant4_scale = { 16, { 0.00083461013855412602, 0.00042409449815750122, 0.00023514470376539975, 0.00021913026284892112, 0.00041957784560509026, 0.00040479053859598935, 0.0003700835513882339, 0.00027984599000774324, 0.00033420513500459492, 0.00027249069535173476, 0.00073794607305899262, 0.00058987486409023404, 0.0004509909194894135, 0.00023807991237845272, 0.00052174617303535342, 0.00056481390492990613, } };
const TfArray<16, int> quant4_zero = { 16, { 0,0,0,0,0,0,0,0,0,0,0,0,0,0,0,0 } };
const TfLiteAffineQuantization quant4 = { (TfLiteFloatArray*)&quant4_scale, (TfLiteIntArray*)&quant4_zero, 0 };
const MODEL_SECTION(EI_MODEL_SECTION) ALIGN(16) int8_t tensor_data5[16*1*1*96] = { 
  /* [0][0][][] */ -17,-13,3,-32,17,-7,-39,0,16,4,-11,5,-7,-9,-26,6,-2,4,-3,-2,10,-32,5,5,4,11,4,127,32,-36,41,-10,-1,6,6,2,-9,13,-38,-4,-11,7,0,36,6,14,14,5,24,1,-7,9,17,-19,-11,81,5,8,-28,-35,-5,24,0,-25,-40,-65,-21,37,7,10,17,-15,-7,-32,-5,-23,-26,18,2,6,-10,-27,25,21,-3,-10,-8,-92,3,-15,6,-4,46,-32,-35,-12, 
  /* [1][0][][] */ 35,-69,-73,-57,127,-14,62,38,-21,-89,-56,-17,4,-5,-60,38,-68,6,46,42,19,38,-16,-55,14,-8,-11,-69,33,-19,-60,37,-22,31,5,1,8,-8,2,21,-30,36,-41,-21,-39,90,10,8,26,-74,13,-40,-20,39,51,12,-56,-22,-34,-35,24,-19,0,-43,-85,104,-27,-21,-5,-26,-20,17,53,-105,-28,2,34,-50,44,7,6,-27,27,1,-51,33,-17,26,29,-39,-2,9,27,11,33,97, 
  /* [2][0][][] */ 2,56,-85,-11,89,79,31,72,-5,-102,-3,-17,-4,0,27,24,8,-17,-47,65,20,-2,73,19,49,25,-5,-38,34,-10,45,-55,32,37,-26,34,-127,-83,26,30,2,-46,16,-19,20,-33,1,66,-29,18,-26,-10,87,-6,-8,53,32,10,31,4,23,22,31,-27,17,-2,-35,1,-44,2,-15,-38,-42,-78,12,60,71,48,31,-8,29,-42,8,-12,-40,28,15,39,-22,27,5,-22,-1,-35,-63,-1, 
  /* [3][0][][] */ 65,19,94,-8,53,-35,19,-11,-20,-66,16,-43,-3,36,38,104,22,-5,29,7,124,-10,40,16,58,-19,-18,19,33,45,-6,90,-106,24,29,-7,-21,-22,-7,42,-81,-31,73,15,23,43,-51,-94,-62,-37,-58,43,-3,-127,2,23,-112,73,61,37,13,100,-14,-54,33,70,-8,-50,28,-26,0,-68,47,-37,56,-18,14,-2,50,43,-34,-73,19,-13,-29,15,24,42,26,15,19,39,35,103,44,-36, 
  /* [4][0][][] */ 24,-6,19,-11,127,36,-6,-19,-38,-46,-37,-31,-47,22,-8,50,26,-78,-36,82,-18,6,29,-18,1,-7,12,-39,8,-13,54,-34,85,10,-21,11,39,17,8,8,-27,-7,-27,-24,-4,-50,-12,8,35,8,-20,9,-5,-35,10,-23,27,-12,-32,27,-2,54,60,23,40,44,-20,-4,-43,2,42,60,15,-67,-41,-26,30,33,78,-32,-7,-37,2,-7,-66,9,38,48,-49,32,1,-41,10,11,24,-21, 
  /* [5][0][][] */ 9,-13,-15,12,27,-17,40,-27,-22,-41,-17,6,-3,27,-1,16,-8,-4,15,-5,30,12,-41,66,12,-6,13,-103,-5,29,12,31,-5,3,5,-62,27,22,-8,11,-10,-8,25,-20,-6,-2,4,-23,-20,-20,9,-17,-4,-29,-7,-52,-3,14,-23,16,68,14,0,34,-5,57,2,77,8,94,12,29,10,12,-6,70,-28,-10,18,11,-10,-10,-1,19,-12,15,-13,127,-3,27,-3,-13,2,15,-61,17, 
  /* [6][0][][] */ 25,-78,19,-36,-32,12,33,21,6,-3,-16,-70,-36,-2,-29,29,16,-8,0,-6,-43,36,13,7,-23,-2,-16,-12,-18,14,39,-5,59,8,61,-3,-6,-13,18,-94,-20,90,3,-34,14,-22,-20,18,-13,36,-27,67,-20,-60,-10,-9,3,-61,-7,1,-14,57,38,-78,29,-29,5,-21,-6,1,127,3,-40,9,-32,25,-83,-9,17,5,31,42,21,-1,-23,-2,39,22,11,8,48,-36,-15,-5,-32,-16, 
  /* [7][0][][] */ 5,127,45,12,121,49,43,-34,-29,-27,41,-13,-25,30,20,27,14,-39,5,30,36,-32,37,11,-5,15,13,9,23,-17,9,21,46,-5,-45,8,21,10,-6,83,-47,27,20,22,-11,-26,29,-22,-28,-29,31,9,23,-41,-34,48,46,3,-18,-1,-13,-44,-4,-6,-55,73,-34,-88,-8,-38,-6,65,-16,-29,17,15,57,58,41,-13,-44,-35,-10,-7,-16,55,-8,-2,-31,30,-36,-36,-50,-17,23,-3, 
  /* [8][0][][] */ -3,1,50,20,-127,-28,44,-17,28,84,64,8,-15,13,25,8,-43,11,11,-2,-39,-2,-111,66,16,-35,58,-15,6,13,1,52,74,-20,-1,-8,-25,-14,4,35,13,-31,44,8,-43,-5,46,2,-106,16,26,23,-61,-39,-34,43,15,-52,-85,-20,16,-32,-28,-8,6,75,-3,-55,20,-15,-44,-24,38,51,54,-12,-20,-39,-16,28,-87,9,-17,-5,24,18,62,40,29,-37,46,48,4,-4,41,16, 
  /* [9][0][][] */ 10,-108,-17,21,95,84,-34,-27,28,-36,95,91,-20,13,92,-104,17,-32,-4,17,-56,-49,33,-11,-26,8,-3,27,-29,8,7,-13,19,17,-108,31,-4,13,-17,61,31,-74,-23,64,0,-15,-76,-32,29,27,-14,-85,64,28,-13,-49,-5,87,-15,3,20,-55,-29,127,-87,-14,-4,-21,0,31,-59,-78,45,-2,0,31,63,-64,24,4,-11,-22,7,28,-3,-68,23,-7,3,-40,-56,34,-63,-9,-8,-45, 
  /* [10][0][][] */ -45,-20,-31,-43,-25,-6,63,-22,33,20,27,34,25,-11,-6,-4,-7,21,-27,-19,-3,30,16,19,-9,-10,10,-127,26,-43,53,-33,1,19,-5,-10,-5,31,2,-5,9,-34,25,-49,10,-5,28,14,-5,36,-26,-17,-34,-23,-6,-56,18,13,-5,-40,24,10,-2,8,-34,87,-15,-30,14,-28,-1,-18,-28,-8,20,54,-6,38,-20,17,-21,0,6,24,8,-17,-8,114,-2,-3,13,13,21,-38,42,-34, 
  /* [11][0][][] */ -85,20,-1,-1,18,-62,-17,-1,-49,-6,-2,18,28,22,-25,-6,51,3,-63,-52,21,-7,-7,-1,74,6,61,-2,-19,30,-40,20,-8,22,-10,-11,-11,5,23,9,-18,-7,3,5,79,14,76,15,47,41,-5,35,11,-64,23,-5,-68,-18,-34,-45,-6,-11,1,21,-3,-26,30,1,22,8,-6,29,-24,12,27,4,-19,80,-127,68,-39,-5,-66,-66,123,19,38,-10,13,45,-31,-56,-24,44,-27,-2, 
  /* [12][0][][] */ -6,-8,-36,2,65,21,2,-14,-13,20,23,-5,5,-15,31,-9,-31,-11,12,-15,-8,-20,-36,47,-21,42,-21,97,-18,33,-35,2,-13,26,9,29,-18,-17,16,8,-2,-14,-4,7,-14,-1,21,22,-3,-4,0,-29,-17,11,-13,-14,-9,-10,13,22,-14,-20,-2,46,40,-77,12,54,-29,-127,-6,51,4,8,11,82,5,-12,-4,1,-3,21,-39,3,10,-15,2,-46,-7,13,8,-1,-36,35,-12,23, 
  /* [13][0][][] */ -82,64,-4,-5,-63,6,-15,15,-38,-26,46,25,84,12,-24,-2,-12,30,-42,-10,17,-12,55,-56,64,39,-5,-1,11,-32,-34,-101,-96,-33,3,8,-3,28,37,-17,-33,83,0,15,41,6,-13,5,65,-10,33,75,69,-67,83,-14,-23,53,43,3,12,31,-13,22,3,-25,6,7,15,19,23,-127,11,-25,-81,9,53,43,-49,-46,86,-19,1,-25,39,-34,89,4,-23,-5,-20,24,39,-41,-18,7, 
  /* [14][0][][] */ -31,17,-13,-47,30,0,-9,29,-80,0,21,14,-24,-60,-71,-27,-79,-12,67,9,31,-4,16,-97,-40,17,-48,-17,13,-17,-5,-32,-66,-27,23,16,-14,-2,9,1,7,80,-70,-11,-49,23,10,13,127,-22,27,-10,28,53,-101,18,-23,30,-100,12,8,29,38,28,5,28,1,4,-49,22,59,34,32,-5,-27,20,50,-68,-28,-94,16,-33,12,40,32,-68,-39,9,-35,22,33,45,16,36,21,-13, 
  /* [15][0][][] */ -39,-76,-8,-38,4,11,-6,-64,-23,17,-4,-30,39,-13,46,-16,-90,-4,-18,12,-16,6,-67,-42,-10,1,-5,18,-20,-16,62,-90,-6,28,21,6,-6,23,-95,3,29,-70,1,28,-25,-46,53,31,50,18,-10,-127,-5,46,-1,38,35,-10,-19,42,6,-1,41,-4,3,-8,-11,-8,-23,21,7,36,-40,5,0,-34,-31,-9,5,9,-4,40,-8,69,-15,-42,-33,-32,-43,58,30,79,-37,-3,1,-13, 
};
const TfArray<4, int> tensor_dimension5 = { 4, { 16,1,1,96 } };
const TfArray<16, float> quant5_scale = { 16, { 0.035470928996801376, 0.018024016171693802, 0.0099936500191688538, 0.0093130357563495636, 0.017832057550549507, 0.017203597351908684, 0.015728550031781197, 0.011893454007804394, 0.014203717932105064, 0.011580853722989559, 0.031362708657979965, 0.025069680064916611, 0.019167114049196243, 0.010118396021425724, 0.022174213081598282, 0.024004591628909111, } };
const TfLiteAffineQuantization quant5 = { (TfLiteFloatArray*)&quant5_scale, (TfLiteIntArray*)&g0::quant4_zero, 0 };
const MODEL_SECTION(EI_MODEL_SECTION) ALIGN(16) int32_t tensor_data6[96] = { 17883, 62667, -1543, -417, 14582, -4931, 109, -266, 5612, 14060, -4198, 3, 683, 4914, 5013, -8940, -4137, -420, -326, 14030, -10614, 16608, -2189, 9405, 22032, 14, -5623, 15767, 14140, -19792, 1689, 21653, 23722, -9439, 1991, -65, -501, -5, 4313, -7315, -5378, -1051, -9027, -10, 29694, -1491, 13294, -1129, -14781, 2139, -12, 220, -2869, 16143, -3996, 14213, 19201, 62, 35618, -51, -8729, -584, 1582, 4, -1163, 12936, -1133, -7892, -3560, 4107, -58, -4012, 1222, 21, -2010, -6058, -92, -1977, 44975, -6768, -5742, -11612, -105, 220, 61262, -12565, -10475, -27756, -7370, 9554, -2036, 34361, 28, -2029, -2771, 1041, };
const TfArray<96, float> quant6_scale = { 96, { 0.00012910905934404582, 9.0932582679670304e-05, 0.00011728917888831347, 0.000213243329199031, 0.00023139167751651257, 0.00016379226872231811, 5.3993629990145564e-05, 9.7024319984484464e-05, 0.0002395803458057344, 0.0001713791280053556, 0.00027756424969993532, 0.00011955935769947246, 0.00025778025155887008, 0.00020383375522214919, 0.00039246512460522354, 0.0001668170589255169, 0.00021132016263436526, 0.00017261975153815001, 0.00019128329586237669, 7.7116419561207294e-05, 8.1449448771309108e-05, 4.7032975999172777e-05, 0.00014281761832535267, 8.086642628768459e-05, 7.2995586378965527e-05, 0.00010068019037134945, 0.0001809656823752448, 0.00019807997159659863, 7.3024508310481906e-05, 0.00046656816266477108, 0.00037169453571550548, 0.00023814206360839307, 0.00012453897215891629, 0.00017621110600885004, 0.00022245717991609126, 0.00045349134597927332, 0.00038814550498500466, 0.00024265130923595279, 0.00024465934257023036, 0.00011455925414338708, 0.00021786295110359788, 0.00019984683603979647, 0.00034021260216832161, 9.9753786344081163e-05, 0.00035119862877763808, 9.6020907221827656e-05, 0.00011655531852738932, 0.00027605667128227651, 0.00068821798777207732, 0.00010184163693338633, 0.00041827766108326614, 0.00015753883053548634, 0.00018354365602135658, 0.00017371466674376279, 0.00021717666822951287, 0.00012395434896461666, 0.00014305274817161262, 0.00040362359140999615, 4.3209223804296926e-05, 0.00017738899623509496, 0.00033213663846254349, 0.0003304817364551127, 0.00011982467549387366, 0.00015733396867290139, 0.00013288141053635627, 0.00014238824951462448, 0.00027338496875017881, 0.00027708749985322356, 0.00018712744349613786, 0.0001034517990774475, 0.00020060112001374364, 0.00010098250641021878, 0.00028533194563351572, 0.0001418446481693536, 0.00038132347981445491, 0.00031043935450725257, 0.00012318944209255278, 8.4090352174825966e-05, 5.7604640460340306e-05, 0.00018527584325056523, 0.00024840026162564754, 0.00023094052448868752, 0.00017526879673823714, 0.00029014379833824933, 5.7730940170586109e-05, 0.00012133538984926417, 7.7765100286342204e-05, 0.00048079859698191285, 0.00024462930741719902, 0.00012317186337895691, 0.0003781082050409168, 3.2141364499693736e-05, 0.0001569699525134638, 0.00010882657807087526, 0.00036102934973314404, 0.0002730391570366919, } };
const TfLiteAffineQuantization quant6 = { (TfLiteFloatArray*)&quant6_scale, (TfLiteIntArray*)&g0::quant2_zero, 0 };
const MODEL_SECTION(EI_MODEL_SECTION) ALIGN(16) int8_t tensor_data7[1*3*3*96] = { 
  /* [0][0][][] */ -46,-72,-10,127,22,71,75,-59,-15,-18,-15,-5,-30,0,37,1,-9,-44,27,22,19,-127,127,5,-84,7,50,-28,-125,-127,39,24,13,26,60,-18,-30,-10,30,-8,-13,27,-108,70,25,-68,37,46,-18,52,-24,19,3,-6,16,48,-90,-50,-60,-19,-11,0,10,38,68,-25,74,13,-8,16,19,127,23,23,26,-1,-11,17,127,-7,-14,15,-28,20,126,20,-76,-16,-1,-32,-15,-38,2,-25,-15,25, 127,-127,75,106,-43,127,39,-118,70,4,-17,127,127,-98,-13,15,11,127,127,-112,127,-76,81,67,-127,-116,-66,-34,-55,46,-59,-20,-89,53,-127,-84,-43,-14,-53,61,-1,127,127,81,-51,-113,-112,-50,-15,-127,43,84,66,-31,45,83,-46,42,-79,-113,-44,-42,-61,67,73,-61,26,30,-81,32,-17,91,117,127,13,19,1,58,-33,52,65,127,127,-23,-9,75,-112,127,-121,-100,5,-127,-90,-127,-38,105, -74,-12,30,-82,15,-26,64,-8,80,-35,-27,18,-19,-5,-9,-13,-9,-16,7,-4,-23,-103,29,-2,-122,97,8,-55,116,50,-15,9,1,14,14,-29,-9,34,19,11,25,12,-118,64,18,-18,37,13,-14,11,-16,5,-10,1,-3,21,-65,6,-32,52,2,41,33,-1,-7,-39,-31,23,10,2,-4,36,10,-25,-5,4,-12,-6,-84,2,-21,-24,-18,3,-110,9,-33,-22,-51,24,-25,-32,29,-26,-14,1, 
  /* [0][1][][] */ -64,-75,74,-36,-48,93,18,127,-52,-21,0,-119,26,-114,78,31,-3,-60,-17,89,53,-70,47,49,-95,-12,127,-22,-25,64,122,-103,-127,90,-86,-56,-36,32,-29,94,-49,-26,-5,46,-48,127,-23,65,16,95,20,-2,14,-54,27,32,127,122,-71,-86,127,-33,-36,127,72,-38,-15,-1,127,39,127,96,-40,102,-5,12,14,13,-31,9,-43,123,-80,110,1,34,-55,30,79,-127,-32,-7,127,-69,-23,0, 67,125,57,-114,127,83,90,38,-127,127,127,-39,-65,-127,-127,127,127,-64,-123,-50,103,95,-123,127,-107,-91,-43,127,-127,109,-127,-127,-89,127,107,127,127,-127,-106,127,-65,-96,110,-127,-127,-36,-127,-127,127,-112,86,43,127,127,127,-127,100,-127,-127,127,20,-80,-127,-99,-127,127,-127,127,-126,-127,-107,-83,-127,-79,127,127,-127,127,-78,127,127,30,-42,-127,60,127,93,45,127,12,127,2,-67,35,127,-127, -53,-13,-50,38,-56,-98,35,-27,19,-34,-28,93,1,92,14,10,-4,64,-6,127,2,-86,-42,6,-73,105,-71,-20,-69,-16,17,-62,-70,38,5,-17,-29,45,-68,41,127,-4,-38,29,-40,-59,16,45,9,118,-11,6,-37,-72,4,19,95,2,1,22,-35,127,92,-52,-43,12,38,-11,-78,122,-18,-86,-1,-54,-17,-21,27,15,77,-36,-70,-42,56,14,-48,-17,72,23,15,62,-43,20,-43,97,-27,-5, 
  /* [0][2][][] */ -67,1,-4,-21,13,-45,65,24,55,-28,-36,-2,18,18,-26,1,-7,65,7,1,-54,-82,2,-9,-27,-54,35,-69,89,39,25,26,17,-9,-11,-46,-7,35,-4,-1,-15,-6,-68,105,4,31,11,36,-15,-31,11,-20,21,-1,9,15,-70,24,-15,14,15,0,-21,-4,-1,-47,-46,15,-33,13,26,30,13,-20,27,4,17,5,-78,-13,-8,-8,17,15,-127,7,12,-43,-59,-50,-27,-48,9,57,-19,-8, 121,33,-127,-35,-72,-25,38,30,-65,-29,-19,-108,-77,111,-13,36,2,-50,-9,-126,92,-51,-39,0,-108,127,-51,20,-35,-21,-9,-4,-62,15,27,5,-23,-28,127,53,11,-14,68,-34,-38,76,-67,-43,-33,-5,-127,-127,-50,-26,1,39,-65,-7,11,39,-7,-18,9,-47,-54,33,64,-22,115,108,-24,-70,12,-58,3,4,99,4,51,22,12,-97,-50,2,3,8,127,40,-61,38,-19,-110,41,79,-10,26, -53,13,-18,26,16,-68,-127,2,-11,-8,-16,4,15,-26,19,-2,-8,-16,5,17,-49,-72,14,1,17,-95,21,3,-48,-39,-7,16,43,-21,-6,-25,-35,3,42,-41,23,-2,-48,-33,3,65,23,16,-9,-4,10,-9,17,6,-4,-5,-61,-13,3,-38,-11,10,84,-10,34,-2,-1,28,1,5,-4,20,-17,16,0,14,35,0,74,-12,3,-8,-8,-17,74,0,43,-39,59,39,-17,-54,-8,2,-14,-16, 
};
const TfArray<4, int> tensor_dimension7 = { 4, { 1,3,3,96 } };
const TfArray<96, float> quant7_scale = { 96, { 0.0054871346801519394, 0.003864634782075882, 0.0049847899936139584, 0.009062841534614563, 0.0098341461271047592, 0.0069611715152859688, 0.0022947292309254408, 0.0041235336102545261, 0.01018216460943222, 0.0072836130857467651, 0.011796480044722557, 0.0050812726840376854, 0.010955660603940487, 0.0086629344150424004, 0.016679767519235611, 0.0070897247642278671, 0.0089811068028211594, 0.0073363394476473331, 0.0081295398995280266, 0.0032774477731436491, 0.0034616014454513788, 0.0019989013671875, 0.0060697486624121666, 0.0034368231426924467, 0.0031023123301565647, 0.0042789080180227757, 0.0076910411007702351, 0.0084183989092707634, 0.0031035414431244135, 0.019829146564006805, 0.015797017142176628, 0.010121037252247334, 0.0052929064258933067, 0.0074889720417559147, 0.0094544300809502602, 0.019273381680250168, 0.016496183350682259, 0.010312680155038834, 0.010398021899163723, 0.0048687681555747986, 0.0092591755092144012, 0.0084934905171394348, 0.014459035359323025, 0.004239535890519619, 0.014925941824913025, 0.0040808883495628834, 0.0049536009319126606, 0.011732408776879311, 0.029249263927340508, 0.0043282695114612579, 0.017776800319552422, 0.0066953999921679497, 0.0078006051480770111, 0.0073828729800879955, 0.0092300083488225937, 0.0052680596709251404, 0.0060797417536377907, 0.01715400256216526, 0.0018363919807597995, 0.0075390320271253586, 0.014115806668996811, 0.01404547318816185, 0.0050925486721098423, 0.0066866935230791569, 0.0056474595330655575, 0.0060515007935464382, 0.011618860997259617, 0.011776219122111797, 0.0079529164358973503, 0.0043967012315988541, 0.0085255475714802742, 0.0042917565442621708, 0.012126607820391655, 0.006028397474437952, 0.016206247732043266, 0.013193672522902489, 0.0052355509251356125, 0.0035738397855311632, 0.0024481972213834524, 0.0078742234036326408, 0.010557010769844055, 0.0098149720579385757, 0.0074489237740635872, 0.01233111135661602, 0.0024535648990422487, 0.0051567540504038334, 0.0033050165511667728, 0.0204339399933815, 0.010396745055913925, 0.0052348040044307709, 0.016069598495960236, 0.0013660079566761851, 0.0066712228581309319, 0.0046251295134425163, 0.015343747101724148, 0.01160416379570961, } };
const TfLiteAffineQuantization quant7 = { (TfLiteFloatArray*)&quant7_scale, (TfLiteIntArray*)&g0::quant2_zero, 3 };
const MODEL_SECTION(EI_MODEL_SECTION) ALIGN(16) int32_t tensor_data8[96] = { 2742, 10905, 20756, 46622, 24665, -5131, -2669, 8267, 51515, -7080, 16931, 6949, 13011, 18113, 53247, 2375, 3974, 15352, 21843, 9714, -349, 605, 19134, -1625, 7385, 75, 20714, 11715, 10702, 59122, 81170, 27394, 11925, -996, 15642, 4097, 2140, 5192, 34353, -1463, 19045, 14764, 62713, -5385, 40667, 13208, 9704, 23808, 94348, 17588, -821, 13315, -5607, -315, -3775, 10804, -895, 24223, 9207, 13664, 8380, 26275, 10684, 8675, 17492, 13804, 8716, -10037, 11616, -4860, 8082, 15759, 31070, 9274, -7402, -8136, 10851, 495, 3882, -1834, 23683, 20092, 9084, 24485, 5219, 440, 17192, 107353, 15785, 17218, 9670, -326, 10625, 13141, 7804, 18530, };
const TfArray<96, float> quant8_scale = { 96, { 0.00014560949057340622, 0.00013517393381334841, 9.0999892563559115e-05, 4.9539023166289553e-05, 0.00012053209502482787, 0.00019753743254113942, 0.00030189889366738498, 0.00019744972814805806, 4.5551932998932898e-05, 0.00019539952336344868, 0.00015817504026927054, 0.00012692443851847202, 9.7699034085962921e-05, 0.00012763458653353155, 4.4792632252210751e-05, 0.00024123286129906774, 0.00011442934919614345, 8.1082725955639035e-05, 0.00010153277980862185, 0.00012248750135768205, 0.00020225833577569574, 0.00037146735121496022, 0.00010509047569939867, 0.00039707860560156405, 0.00035415866295807064, 0.00015273528697434813, 0.00010790923261083663, 0.00011968998296651989, 0.00015256140613928437, 5.947179306531325e-05, 3.499317608657293e-05, 8.9871020463760942e-05, 0.00013925084203947335, 0.00021707113774027675, 0.00012813198554795235, 0.00014408741844817996, 0.00024024708545766771, 0.00028327706968411803, 7.9043311416171491e-05, 0.00038163669523783028, 9.8542928753886372e-05, 0.00010653718345565721, 4.3001335143344477e-05, 0.0001959325309144333, 7.986285345396027e-05, 0.00011672680557239801, 0.00017943252169061452, 0.00011257839651079848, 4.3673731852322817e-05, 0.00011928556341445073, 0.00014918978558853269, 0.00012887756747659296, 0.00018935246043838561, 0.00014653227117378265, 0.00027285137912258506, 0.00010198829841101542, 0.00012099812738597393, 7.7245298598427325e-05, 0.0002212970721302554, 0.00010809675586642697, 0.0001915414904942736, 5.340741336112842e-05, 0.00013803550973534584, 0.00011373533925507218, 0.0001414153230143711, 0.00013972242595627904, 0.00014851543528493494, 0.00013283226871863008, 0.00014504938735626638, 0.00014607526827603579, 0.00013719465641770512, 0.00010045425733551383, 6.706492422381416e-05, 0.00011083295248681679, 0.00020915003551635891, 0.00016698673425707966, 0.00015291232557501644, 0.00020913759362883866, 0.00019468496611807495, 0.00021693947201129049, 8.5896579548716545e-05, 8.2976097473874688e-05, 9.6508643764536828e-05, 7.8969758760649711e-05, 0.00022150261793285608, 0.00019103256636299193, 0.00013613718328997493, 3.5884877434000373e-05, 8.9622742962092161e-05, 0.00013142201351001859, 0.00013120660150889307, 0.00022965529933571815, 0.00013765732001047581, 0.00012176156451459974, 0.00014491433103103191, 9.2451584350783378e-05, } };
const TfLiteAffineQuantization quant8 = { (TfLiteFloatArray*)&quant8_scale, (TfLiteIntArray*)&g0::quant2_zero, 0 };
const MODEL_SECTION(EI_MODEL_SECTION) ALIGN(16) int8_t tensor_data9[96*1*1*16] = { 
  /* [0][0][][] */ 0,65,-25,78,26,32,12,-14,31,35,-59,103,5,-127,44,-126, 
  /* [1][0][][] */ 20,51,-10,-22,26,-29,127,-107,1,87,-13,-18,5,-48,33,12, 
  /* [2][0][][] */ -127,34,-36,-23,0,-7,55,93,-32,55,109,-18,-65,15,32,-51, 
  /* [3][0][][] */ -70,65,50,64,-51,58,73,127,11,69,-120,6,42,-73,-88,-61, 
  /* [4][0][][] */ 13,-1,35,65,-19,65,-3,46,7,-16,-2,-4,23,-4,-127,-23, 
  /* [5][0][][] */ -7,-30,58,-22,8,-24,-5,27,-69,101,-30,-127,-15,24,-55,-25, 
  /* [6][0][][] */ 15,0,33,-11,41,59,-67,-71,-8,-2,46,-14,127,-24,-16,-36, 
  /* [7][0][][] */ 20,12,127,-13,-22,-38,7,-8,-79,27,-82,-46,11,-7,34,-14, 
  /* [8][0][][] */ 21,30,78,67,-57,85,21,47,43,5,12,-93,-38,6,-127,-79, 
  /* [9][0][][] */ 32,-119,57,47,12,-33,1,21,127,2,81,10,-28,7,-109,-32, 
  /* [10][0][][] */ -40,-95,5,-19,-102,9,-14,59,100,127,46,-28,-29,64,83,-7, 
  /* [11][0][][] */ 45,-18,8,-95,15,-28,-110,-127,-54,42,-10,-30,31,-24,41,-64, 
  /* [12][0][][] */ -15,5,10,-40,-35,-39,-96,-17,-46,-74,-25,16,25,127,89,46, 
  /* [13][0][][] */ -35,-100,-68,30,-10,-67,0,-24,52,12,-13,-13,23,18,127,31, 
  /* [14][0][][] */ 1,-59,57,30,24,33,10,127,21,55,12,-40,13,44,-61,119, 
  /* [15][0][][] */ 21,-33,2,61,16,-3,95,0,5,-127,14,-35,0,-21,-7,-36, 
  /* [16][0][][] */ 39,-84,-46,32,12,8,39,-71,127,68,94,4,7,105,64,116, 
  /* [17][0][][] */ -74,-70,56,127,115,55,8,-22,120,-52,-11,-45,19,57,-119,34, 
  /* [18][0][][] */ -11,14,1,19,-102,-1,-11,40,-66,-22,-20,-46,5,-127,67,-3, 
  /* [19][0][][] */ 57,-64,49,-73,97,32,-110,94,99,-85,81,49,-15,68,47,127, 
  /* [20][0][][] */ 43,-21,67,-62,-9,10,-34,49,-15,-52,94,-14,11,14,-39,127, 
  /* [21][0][][] */ -64,-15,0,-37,15,13,-81,-51,-23,61,2,12,-127,-14,33,-8, 
  /* [22][0][][] */ 25,-25,25,-28,16,-65,6,-16,-127,26,-14,-42,-18,-15,77,-21, 
  /* [23][0][][] */ 15,6,17,-8,6,10,-9,3,-8,-6,42,-13,127,-6,1,-37, 
  /* [24][0][][] */ -13,1,2,-65,-28,-19,46,9,-53,-2,-9,-127,5,-100,42,12, 
  /* [25][0][][] */ -111,14,-47,-5,61,-27,-77,-127,-31,57,-31,-58,-78,-85,22,-47, 
  /* [26][0][][] */ 38,-10,53,-109,127,-31,0,-1,122,-50,40,-32,-10,104,3,79, 
  /* [27][0][][] */ 99,-29,21,-29,-33,-54,-3,-20,-27,20,-127,14,16,-14,1,40, 
  /* [28][0][][] */ -119,-19,-127,-81,50,-13,73,-55,-1,52,-63,16,43,-10,-41,47, 
  /* [29][0][][] */ -64,-32,-4,127,-9,19,8,-41,-9,0,-79,49,22,-74,28,-37, 
  /* [30][0][][] */ 57,-14,127,-20,55,44,-30,75,-36,-79,59,-36,-9,26,-69,71, 
  /* [31][0][][] */ 13,-87,2,-48,-1,-62,18,-40,-15,41,102,18,-21,94,66,127, 
  /* [32][0][][] */ -14,72,-34,38,-127,23,-72,-41,-55,-33,0,49,10,51,34,60, 
  /* [33][0][][] */ 29,-16,28,127,21,2,21,-45,-102,49,61,-22,5,2,5,102, 
  /* [34][0][][] */ 36,-1,12,-5,76,-43,-127,-21,-46,87,-40,4,-29,8,6,10, 
  /* [35][0][][] */ 71,15,-12,1,19,-127,-26,-8,-25,0,-84,-2,75,21,-6,18, 
  /* [36][0][][] */ 21,-1,-127,6,44,13,-32,22,-32,-19,1,-10,2,13,-18,10, 
  /* [37][0][][] */ 1,-1,127,-6,-58,24,22,-59,-12,28,-48,18,21,-10,14,-3, 
  /* [38][0][][] */ -127,35,-2,27,26,79,12,-21,13,-19,126,-28,-31,12,-12,-22, 
  /* [39][0][][] */ -17,-6,16,34,33,-12,-127,36,12,29,-2,-34,-2,-20,-1,-5, 
  /* [40][0][][] */ 2,76,-21,127,11,47,57,35,-69,-34,-27,57,20,44,-65,-29, 
  /* [41][0][][] */ 16,13,-41,-23,-51,-2,127,92,-50,84,-30,-3,2,64,39,-9, 
  /* [42][0][][] */ 38,-52,-28,-16,32,37,-64,69,86,-97,127,46,-18,45,-62,40, 
  /* [43][0][][] */ -74,3,27,-39,34,19,-76,-79,-27,43,2,-15,-127,-14,35,-7, 
  /* [44][0][][] */ 7,6,-15,-7,-4,-20,-3,-48,127,-4,19,43,17,75,2,45, 
  /* [45][0][][] */ -65,-86,11,-97,34,-10,-15,51,16,-76,-20,-28,30,110,-41,127, 
  /* [46][0][][] */ -43,17,-27,90,-81,-25,3,-74,-127,41,-45,-13,-2,31,1,-38, 
  /* [47][0][][] */ -28,-16,-101,127,3,58,-2,-23,11,51,55,58,-23,-16,23,-21, 
  /* [48][0][][] */ -12,0,25,-127,21,-40,-15,-7,-52,12,26,-19,-12,58,101,45, 
  /* [49][0][][] */ -22,24,51,120,-14,43,-57,-15,22,-50,-94,-44,-31,-47,-97,-127, 
  /* [50][0][][] */ 2,68,24,-113,62,16,-20,56,127,-18,-34,10,3,-41,15,-28, 
  /* [51][0][][] */ 11,-29,21,-6,46,-10,-53,-127,14,-71,-5,-1,-14,-12,-11,-12, 
  /* [52][0][][] */ 24,18,-8,33,38,-16,-67,103,-83,127,-42,-40,82,104,7,-39, 
  /* [53][0][][] */ -8,98,5,-95,-39,-8,30,-24,-63,-49,-43,51,16,-127,-88,-8, 
  /* [54][0][][] */ -2,10,17,32,48,-24,7,-34,-3,28,-13,-20,-8,127,-43,-13, 
  /* [55][0][][] */ -125,127,92,-21,48,4,-19,-4,-50,29,108,-15,-15,-29,119,-14, 
  /* [56][0][][] */ 61,1,21,-118,90,-1,-14,35,57,-52,49,127,-25,14,95,56, 
  /* [57][0][][] */ -23,-2,17,66,-21,18,42,127,-5,3,6,-26,3,52,6,18, 
  /* [58][0][][] */ 21,127,-2,-122,6,34,-11,20,107,-7,-3,81,6,-88,43,65, 
  /* [59][0][][] */ 29,50,47,-115,-45,-4,28,-7,8,24,29,-69,-14,-127,-70,19, 
  /* [60][0][][] */ 51,-11,113,-43,-37,127,30,-36,-12,35,-50,-11,28,9,30,-6, 
  /* [61][0][][] */ -27,29,-48,-49,-59,9,110,127,-18,74,-8,13,11,78,23,-33, 
  /* [62][0][][] */ -13,-2,-7,-1,-81,32,-61,11,-26,-23,-6,-54,15,-127,81,2, 
  /* [63][0][][] */ 13,-31,-2,-89,42,-2,-123,-127,-58,97,-18,10,58,1,25,-40, 
  /* [64][0][][] */ -26,-3,34,47,74,-2,-35,-127,29,-111,0,-42,-5,-22,-6,5, 
  /* [65][0][][] */ -127,18,29,-63,15,77,45,-50,-76,31,50,-11,-1,16,-17,-30, 
  /* [66][0][][] */ 65,9,87,16,-54,16,-26,50,-50,-7,66,-88,-20,51,-127,-18, 
  /* [67][0][][] */ 39,-32,-40,63,58,-49,-83,-109,43,-127,-73,-34,-97,16,-82,25, 
  /* [68][0][][] */ 13,-29,-71,54,-55,-91,3,-55,-35,-15,41,-66,-28,57,127,-14, 
  /* [69][0][][] */ -28,36,-71,57,-12,-126,26,83,26,7,52,-14,127,33,-16,4, 
  /* [70][0][][] */ 10,10,-38,-38,-44,9,127,94,-21,53,-19,10,13,42,16,-5, 
  /* [71][0][][] */ 10,-9,-27,-51,24,3,10,56,-29,-44,-10,-1,12,-127,74,10, 
  /* [72][0][][] */ 33,32,-11,33,31,-41,-46,-127,18,59,-51,18,47,59,42,50, 
  /* [73][0][][] */ -46,-127,-29,-66,-85,-19,37,-30,-21,12,-33,-35,20,-49,64,-6, 
  /* [74][0][][] */ -29,29,62,101,-6,5,-127,97,24,-34,-39,-41,-1,-9,-15,-2, 
  /* [75][0][][] */ -56,32,-37,15,-29,94,90,127,-3,58,2,-35,-118,77,14,21, 
  /* [76][0][][] */ 13,-21,-40,-23,44,-72,-127,-114,-21,-16,11,-8,42,-7,73,-33, 
  /* [77][0][][] */ -33,9,-33,-23,-44,-3,-13,-42,127,7,-64,9,-7,46,25,-82, 
  /* [78][0][][] */ -106,-127,-12,93,71,68,-29,35,0,-69,-110,85,51,-26,100,63, 
  /* [79][0][][] */ 38,-11,32,-54,127,8,48,16,80,24,3,31,-4,-26,11,-39, 
  /* [80][0][][] */ -12,-33,63,-109,-24,-46,3,7,-81,-40,-12,-53,1,127,-37,15, 
  /* [81][0][][] */ 18,-9,41,39,9,49,-17,-16,7,-9,-3,-38,-4,33,-127,16, 
  /* [82][0][][] */ -84,-25,29,-127,-11,-37,-3,-47,-34,-35,-50,-119,-19,-120,-100,30, 
  /* [83][0][][] */ -2,10,-27,-67,-46,11,-4,39,-75,-1,10,-76,20,-127,9,49, 
  /* [84][0][][] */ 127,35,20,49,-55,3,-58,23,-7,-21,107,7,-72,19,83,-78, 
  /* [85][0][][] */ -8,-21,17,-32,44,-6,-43,117,-85,-116,-69,-35,-21,79,83,-127, 
  /* [86][0][][] */ 18,-2,8,0,-54,65,-40,45,-92,-49,30,-23,-14,-127,-14,28, 
  /* [87][0][][] */ 127,-43,20,-2,-37,-32,1,-2,7,15,-110,13,37,-7,-1,35, 
  /* [88][0][][] */ 40,84,-24,3,-12,-23,-22,-18,107,22,36,40,-26,-38,127,-122, 
  /* [89][0][][] */ 42,68,-86,-19,-37,-23,28,-67,49,51,25,-34,-40,-1,-21,-127, 
  /* [90][0][][] */ -13,-29,1,-79,-72,14,127,-67,92,-80,16,-81,43,-21,-38,-14, 
  /* [91][0][][] */ 11,5,-21,-98,-43,-1,30,-40,-53,24,63,49,12,-20,36,127, 
  /* [92][0][][] */ 16,3,7,13,56,-14,-71,-127,44,-62,-4,-29,-35,-16,-4,-21, 
  /* [93][0][][] */ 69,5,38,-127,-39,-4,-26,50,45,-74,81,-20,-36,116,-24,25, 
  /* [94][0][][] */ -104,45,-96,14,65,-127,-16,4,-5,-49,91,-28,-1,-3,-17,-6, 
  /* [95][0][][] */ -25,59,21,-127,-5,-2,-29,3,21,-31,-59,-73,-2,30,-64,-8, 
};
const TfArray<96, float> quant9_scale = { 96, { 0.00072880735388025641, 0.00067657505860552192, 0.00045547433546744287, 0.00024795363424345851, 0.00060328945983201265, 0.0009887180058285594, 0.0015110699459910393, 0.00098827900364995003, 0.00022799738508183509, 0.0009780173422768712, 0.00079170067328959703, 0.0006352845230139792, 0.00048900500405579805, 0.000638839032035321, 0.00022419690503738821, 0.0012074231635779142, 0.00057274388382211328, 0.00040583676309324801, 0.00050819374155253172, 0.00061307672876864672, 0.0010123471729457378, 0.0018592752749100327, 0.00052600080380216241, 0.0019874651916325092, 0.0017726414371281862, 0.00076447351602837443, 0.00054010929306969047, 0.00059907452668994665, 0.00076360319508239627, 0.00029766932129859924, 0.00017514849605504423, 0.00044982408871874213, 0.00069698086008429527, 0.001086488482542336, 0.00064132857369259, 0.00072118901880457997, 0.0012024891329929233, 0.0014178636483848095, 0.00039562903111800551, 0.0019101750804111362, 0.00049322890117764473, 0.00053324189502745867, 0.00021523107716348022, 0.00098068511579185724, 0.00039973104139789939, 0.00058424315648153424, 0.00089809898054227233, 0.00056347949430346489, 0.00021859657135792077, 0.00059705029707401991, 0.00074672745540738106, 0.00064506038324907422, 0.00094775046454742551, 0.00073342607356607914, 0.0013656807132065296, 0.00051047373563051224, 0.00060562207363545895, 0.00038662960287183523, 0.0011076402151957154, 0.00054104789160192013, 0.00095870700897648931, 0.00026731577236205339, 0.00069089786848053336, 0.00056927022524178028, 0.00070781458634883165, 0.0006993412971496582, 0.00074335222598165274, 0.00066485453862696886, 0.00072600389830768108, 0.0007311386289075017, 0.00068668922176584601, 0.00050279550487175584, 0.00033567461650818586, 0.00055474316468462348, 0.0010468416148796678, 0.0008358050836250186, 0.00076535961125046015, 0.0010467793326824903, 0.00097444083075970411, 0.0010858294554054737, 0.00042993115494027734, 0.00041531349415890872, 0.00048304683878086507, 0.00039526089676655829, 0.0011086689773947001, 0.00095615972531959414, 0.00068139634095132351, 0.00017961165576707572, 0.00044858141336590052, 0.00065779587021097541, 0.00065671774791553617, 0.0011494749924167991, 0.0006890049553476274, 0.00060944323195144534, 0.00072532787453383207, 0.00046274039777927101, } };
const TfLiteAffineQuantization quant9 = { (TfLiteFloatArray*)&quant9_scale, (TfLiteIntArray*)&g0::quant2_zero, 0 };
const MODEL_SECTION(EI_MODEL_SECTION) ALIGN(16) int32_t tensor_data10[16] = { -3748, -4930, -12246, 32109, 26553, 4392, -5640, -4441, 25016, 2682, 28056, 23627, -9984, 12415, 35941, -29844, };
const TfArray<16, float> quant10_scale = { 16, { 0.00044954550685361028, 0.00027444533770903945, 0.00027961458545178175, 0.00023549317847937346, 0.00038139606476761401, 0.00032934831688180566, 0.00031491348636336625, 0.0003803997824434191, 0.00020431220764294267, 0.0002650624664966017, 0.00037236657226458192, 0.00068335089599713683, 0.00047637286479584873, 0.00048513861838728189, 0.0004665565793402493, 0.0002999218413606286, } };
const TfLiteAffineQuantization quant10 = { (TfLiteFloatArray*)&quant10_scale, (TfLiteIntArray*)&g0::quant4_zero, 0 };
const MODEL_SECTION(EI_MODEL_SECTION) ALIGN(16) int8_t tensor_data11[16*1*1*96] = { 
  /* [0][0][][] */ -1,18,-10,19,45,69,-36,-29,45,3,13,8,-10,13,23,68,1,-7,-8,-7,98,-56,8,-16,-23,-36,-42,-95,-6,-5,46,48,118,-5,4,-2,9,-20,-20,9,-32,13,19,-31,3,-30,-13,25,-13,20,2,-9,-34,-13,7,-4,38,23,-21,-25,-60,30,-10,-10,13,9,56,1,12,4,1,-27,-62,-4,-1,3,-7,-89,7,-18,38,-19,-58,-43,29,-13,6,25,-7,3,19,-32,23,20,-12,127, 
  /* [1][0][][] */ 78,-97,44,82,-11,-66,-16,-44,-25,-92,-7,26,10,-62,-35,-54,-84,-5,24,22,-36,-109,-39,27,127,-65,-74,16,-28,94,-16,51,11,13,-43,24,-21,-11,50,-26,1,-78,76,-34,-56,16,56,-5,35,22,0,-71,64,-78,40,-22,22,28,-17,-107,37,-67,20,-51,4,-84,34,46,41,51,-39,1,-97,39,-21,66,37,96,18,-22,42,6,-75,35,-83,64,-1,63,-43,12,20,10,7,-45,40,1, 
  /* [2][0][][] */ 28,17,14,-29,5,-1,-10,37,65,-16,14,71,-1,10,48,6,-12,-14,14,-8,-20,-65,6,-58,-1,-15,-28,25,-8,21,127,-61,18,-73,-25,61,17,126,-44,-24,1,-18,-5,36,-46,-50,-63,25,29,31,-33,-34,26,-1,-4,-31,-26,2,-4,28,3,5,77,93,7,-80,19,-74,-11,-17,-13,9,-16,11,-22,15,15,58,6,20,13,92,28,-13,-12,5,11,5,25,3,-4,-52,-44,4,-7,66, 
  /* [3][0][][] */ -11,-19,-33,35,26,-22,-2,-23,-16,14,2,5,7,-16,43,-8,40,-40,22,8,-18,-10,-12,0,-17,10,9,-7,22,-46,62,-20,15,-14,-14,49,-12,-8,-12,7,10,-66,21,-30,-5,5,1,1,-127,45,-15,22,-118,-59,-27,-37,28,10,-14,53,-7,20,9,15,-17,-92,-36,27,55,15,-1,26,-39,12,-9,-49,-50,-54,25,-38,11,-20,18,68,38,56,35,13,32,-8,-10,6,-31,-1,-16,-27, 
  /* [4][0][][] */ 0,-30,16,-72,-1,-14,-50,6,-22,-46,-29,-11,7,73,10,7,52,-12,7,2,-6,30,53,4,-3,-4,18,11,4,-9,-5,-7,-36,10,2,17,36,-23,3,-10,12,8,-101,-30,32,-8,-10,-15,5,82,-13,-19,-22,-18,8,-7,-3,-31,26,33,11,7,4,-7,38,-116,24,-22,-48,14,-16,-1,-12,16,-19,30,-23,65,55,5,11,5,127,-39,41,-20,-12,-4,67,8,-3,19,-35,25,-5,-44, 
  /* [5][0][][] */ -8,1,-2,-7,-8,-5,-2,113,58,-18,-13,-31,-11,24,35,31,-17,-10,2,-41,-48,-13,-4,-54,13,7,24,75,72,7,69,47,-50,18,0,-6,-53,-55,-31,-16,-38,-16,-11,-5,64,14,7,12,14,9,-21,8,-28,-17,2,-6,-23,-17,-9,33,-52,22,-23,-43,9,13,-23,7,-6,15,5,-1,34,9,7,-5,-8,26,9,127,-6,-43,22,32,3,-3,22,-32,-3,-25,19,-127,-35,-21,-10,-118, 
  /* [6][0][][] */ -26,-5,-11,-54,-4,-19,-15,14,-4,20,-15,-2,36,-64,6,-12,-4,-66,29,11,3,4,-19,21,75,-8,-1,0,19,-7,13,-10,-22,1,-22,3,20,4,20,35,-4,-29,-49,-20,-5,-22,26,-127,22,34,18,11,10,3,-7,-43,36,-8,-6,6,20,19,3,7,38,64,25,-21,-22,-11,15,-23,17,6,44,-7,-29,27,4,3,-16,-6,49,-30,-2,43,20,-20,23,7,-37,-7,-21,10,-7,14, 
  /* [7][0][][] */ 15,10,35,-24,-6,2,-5,-25,-5,-12,-16,-14,-9,-92,26,5,-4,-34,-15,-9,10,-16,-36,-5,-20,-11,1,-17,10,7,7,1,-12,4,-9,-18,2,-11,-29,25,7,-13,-20,30,-5,14,-15,75,-2,25,-15,-25,-26,5,-2,-50,41,0,-2,1,-5,6,-12,-7,-21,39,14,-27,-13,-7,5,40,-9,-10,-13,7,52,7,-3,-21,5,-35,36,-1,-34,127,-3,-1,-33,-21,-2,20,-23,-2,-5,5, 
  /* [8][0][][] */ -67,43,-58,1,44,-8,-16,27,14,73,-44,9,14,35,73,-15,-4,32,-78,17,17,27,-33,-1,-40,-24,22,11,50,-92,0,-5,26,7,12,-9,-19,31,-41,47,9,13,5,-127,-39,-7,45,-26,-51,20,2,69,-107,75,20,-4,7,-20,-25,-19,0,-39,7,20,-31,34,31,-23,-10,2,28,80,-23,33,39,37,-8,-93,-1,-37,-16,-14,22,5,-63,5,13,-45,2,36,-27,6,35,-14,-18,-13, 
  /* [9][0][][] */ 26,-56,-34,-35,17,23,-20,21,27,-17,-2,13,-43,-25,7,19,-5,4,38,-20,-23,6,-26,-44,33,11,29,-12,-32,-35,-19,-2,-9,13,20,33,6,41,-36,19,12,12,-20,-87,8,-11,27,-127,-33,-1,-2,26,-15,6,-13,6,-42,25,-11,15,12,11,12,29,24,110,35,44,10,-10,12,-23,-12,1,-34,9,69,-3,13,11,-11,3,12,-41,2,25,-4,0,-47,33,-35,0,6,9,6,-17, 
  /* [10][0][][] */ 27,50,-20,33,68,-114,-12,-28,4,50,31,-6,-13,23,15,-77,17,39,-23,38,-87,-11,-11,-30,-65,-28,-55,49,14,8,2,37,-12,-15,32,-13,78,-22,-12,-7,-16,65,48,-22,-57,-12,-40,11,-20,-20,-39,-3,-13,-12,6,-13,11,31,-23,-17,0,6,-15,23,9,43,56,28,25,-1,28,54,-52,-23,-58,-12,0,27,-18,11,28,-5,-67,-31,62,-51,97,-11,-20,12,26,-17,81,38,-14,-127, 
  /* [11][0][][] */ 43,40,-31,23,-5,15,53,4,-4,-17,-24,-12,0,1,35,2,-2,-9,-98,-6,1,13,5,-8,-43,-21,-10,3,3,18,1,-6,-6,7,6,20,9,13,-7,20,5,27,59,-96,29,-38,3,-5,-127,12,11,-48,24,18,-10,12,-14,-13,7,3,14,-17,-9,7,-51,52,-18,11,16,-2,25,10,-51,-27,12,29,-4,-36,-51,5,10,-3,88,46,6,-9,-13,-10,3,23,-17,-2,-2,8,-22,13, 
  /* [12][0][][] */ -31,-5,8,-3,-25,33,13,1,127,6,-13,4,0,7,-36,-39,25,27,10,75,55,29,-9,-21,1,10,17,-26,-104,6,31,-37,4,-6,-8,-19,18,-1,40,-10,-47,-18,-5,11,2,28,7,-3,18,5,-41,11,8,-2,9,-6,70,-26,12,15,18,-13,12,-11,-4,30,-39,2,-2,7,-15,-33,16,11,-68,5,27,-5,11,-60,-13,7,39,38,-16,-14,-27,-25,8,17,-4,46,-14,-22,13,8, 
  /* [13][0][][] */ 29,-11,-27,28,29,-2,8,1,-7,2,9,-3,11,-10,12,-13,16,-70,-34,11,-10,-18,9,4,10,10,0,-4,-11,-32,-6,15,0,5,7,43,16,-1,7,16,-1,8,22,36,17,17,-11,-127,20,-3,5,6,-15,-4,18,6,-11,16,22,12,6,17,-6,5,-11,-20,-18,-52,5,14,-10,-31,-13,36,-8,20,-24,1,15,-2,26,-11,-13,17,13,26,9,18,-4,-1,22,-6,2,13,-9,-7, 
  /* [14][0][][] */ -116,-50,27,54,33,-28,-31,14,-16,8,-11,13,64,9,-127,1,78,-15,-17,32,-12,-7,38,21,-108,8,33,-13,-40,-78,-32,0,-4,3,25,-70,30,36,1,23,20,34,-1,-33,18,122,72,58,-115,51,12,35,-51,-4,36,-4,9,11,64,60,35,50,12,49,-1,-14,-44,47,9,80,-55,-84,-81,1,-3,46,-10,42,88,0,59,16,36,28,44,12,48,34,26,47,71,-5,1,27,23,-27, 
  /* [15][0][][] */ 92,-27,38,6,-3,75,36,-22,-16,53,8,5,-89,-8,-12,35,11,43,51,-14,11,23,-89,71,25,10,48,-2,26,43,-64,-78,13,-53,44,1,42,-36,-56,-106,-7,35,4,37,-1,53,-25,-38,106,-43,-52,26,44,-125,68,-109,3,-63,19,24,-127,0,19,23,81,-21,-55,47,-31,77,-28,21,45,27,20,7,24,-56,69,-16,-12,-1,41,82,-15,-2,-1,-54,3,-6,72,0,-67,61,25,-11, 
};
const TfArray<16, float> quant11_scale = { 16, { 0.019105684012174606, 0.011663926765322685, 0.011883620172739029, 0.010008459910750389, 0.016209332272410393, 0.013997303321957588, 0.01338382251560688, 0.016166990622878075, 0.0086832689121365547, 0.011265154927968979, 0.015825578942894936, 0.029042413458228111, 0.02024584636092186, 0.020618390291929245, 0.019828654825687408, 0.012746677733957767, } };
const TfLiteAffineQuantization quant11 = { (TfLiteFloatArray*)&quant11_scale, (TfLiteIntArray*)&g0::quant4_zero, 0 };
const MODEL_SECTION(EI_MODEL_SECTION) ALIGN(16) int32_t tensor_data12[96] = { 9951, -9247, 2858, 52564, -1291, -4343, -11492, 2186, -2810, 1192, 2851, -1332, 1355, -6869, 5236, -5725, -1378, 16914, 26067, 2139, 1509, -2615, 19, 94, 18200, -1137, -785, -3562, -6008, -7586, 5519, -9175, -122, -393, 63, 13093, 1454, -3615, 19366, 475, -13, 1954, -9947, -7652, -7077, 67295, 352, 12873, 27657, -12400, 25, 8443, 7388, -366, -5387, 2291, -12588, 1903, 2048, -6660, -1583, -921, -13012, -429, 1462, 16195, 28911, 27003, -12284, 436, -7592, -869, 52653, 8439, 16, 935, 18660, 32721, -264, -7566, -1511, -7984, 1068, -3418, 668, 585, 1253, -357, 1468, -2523, -17, 79, -25, -405, 497, 49703, };
const TfArray<96, float> quant12_scale = { 96, { 0.00018060025468003005, 0.00011516554513946176, 0.00027700042119249701, 4.0921953768702224e-05, 0.00017807459516916424, 0.00015935694682411849, 0.00029138947138562799, 8.5851039330009371e-05, 0.00014239797019399703, 0.00040915756835602224, 0.00015971747052390128, 0.00034495539148338139, 9.1435969807207584e-05, 0.00039411752368323505, 0.00019109310233034194, 0.00014560700219590217, 0.00010229583858745173, 0.00029607649776153266, 5.7743051002034917e-05, 0.00031383015448227525, 5.2654104365501553e-05, 0.00018711117445491254, 0.000123887017252855, 0.00037769216578453779, 0.00018952044774778187, 0.00023810808488633484, 0.00015840402920730412, 0.00017239795124623924, 0.00012603632058016956, 0.00010636854131007567, 0.00014816936163697392, 0.00017446641868446022, 0.00012632954167202115, 0.00015870474453549832, 0.00021249362907838076, 0.00017583818407729268, 0.00039284778176806867, 0.00012148693349445239, 4.2860094254137948e-05, 0.00013752152153756469, 0.00024176073202397674, 0.00033261138014495373, 0.00033540721051394939, 0.0001440520427422598, 0.00020194862736389041, 4.6460998419206589e-05, 0.00020964174473192543, 0.00027132927789352834, 9.2506990768015385e-05, 0.00018739141523838043, 0.00021152457338757813, 0.000154768509673886, 0.00023693261027801782, 0.00028264705906622112, 0.00028677476802840829, 0.00043047964572906494, 0.00030290943686850369, 0.00021238703629933298, 0.00011217800056328997, 8.1028578279074281e-05, 0.00029862351948395371, 0.00013967785343993455, 0.00027049958589486778, 0.00013550897710956633, 0.00019393062393646687, 0.00017713250417727977, 8.2140184531453997e-05, 6.5731204813346267e-05, 0.0003278627700638026, 0.0002424740232527256, 0.00022238581732381135, 0.0001055699831340462, 0.00010918039333773777, 0.00012732630420941859, 0.00016333449457306415, 0.00026674929540604353, 0.0005367567646317184, 5.2947190852137282e-05, 0.0002670266549102962, 0.0002512243518140167, 0.00016084902745205909, 0.00026586654712446034, 0.00010780179582070559, 0.000161361662321724, 0.00012976313882973045, 9.2818467237520963e-05, 0.00013586420391220599, 0.00019892079581040889, 0.00019133281602989882, 0.00010781522723846138, 0.00020159882842563093, 0.00012104737106710672, 0.00014604318130295724, 0.00043212136370129883, 0.0026804718654602766, 7.7038486779201776e-05, } };
const TfLiteAffineQuantization quant12 = { (TfLiteFloatArray*)&quant12_scale, (TfLiteIntArray*)&g0::quant2_zero, 0 };
const MODEL_SECTION(EI_MODEL_SECTION) ALIGN(16) int8_t tensor_data13[1*3*3*96] = { 
  /* [0][0][][] */ -17,6,-20,104,-17,23,-62,-53,17,-6,99,-9,3,-8,-4,54,5,16,-34,3,74,3,32,-33,2,17,44,49,21,13,24,48,-7,27,10,-15,5,48,-59,-26,20,9,27,17,-85,-56,25,-5,-11,-20,-8,-6,49,5,-9,2,-3,-36,28,-31,27,-2,127,27,-13,-11,11,-53,66,35,2,-7,79,-32,69,4,17,-127,29,64,1,15,127,-14,38,29,-29,-19,35,-7,-14,81,1,20,-2,12, -48,12,-8,10,52,-8,-10,-127,38,14,-127,-5,-17,-12,4,92,18,-30,-14,-16,76,-96,127,26,-61,-31,-105,-16,27,36,-49,18,119,12,-14,-1,-24,127,-64,-127,9,-19,-30,14,46,-127,127,-44,-76,50,49,7,39,-64,31,56,36,42,-101,84,127,34,4,-20,43,-38,-96,-1,37,-30,-18,46,-48,-48,106,-4,-30,-60,-33,64,-67,62,-16,9,-11,48,54,-41,-28,54,-13,72,-127,-31,23,-127, 0,-4,-23,-74,8,18,38,22,-4,-2,5,62,0,-12,-10,6,-12,17,-16,17,6,25,24,-32,1,-31,10,12,-7,5,46,-79,44,17,9,-22,12,3,-30,-21,7,3,-16,8,23,-32,21,1,7,-8,6,-5,5,6,-6,8,-7,44,7,-2,11,-18,3,-17,-27,-17,31,-50,-106,-7,41,-18,-127,-22,-12,17,10,-11,6,11,-13,23,-36,-3,-40,21,26,36,-24,-17,25,-12,19,7,-2,-45, 
  /* [0][1][][] */ -40,59,-18,37,-85,-16,-11,-44,26,96,-44,-21,-31,-24,-7,63,127,-24,-90,-13,58,-127,-29,16,-35,-47,-127,-6,37,36,-49,28,-127,-75,-57,3,65,-3,-51,46,-19,86,1,-3,35,-51,-12,-32,127,43,-4,21,44,9,-36,-17,31,9,-124,127,-36,-89,21,127,-59,-36,-85,126,-36,127,-18,53,-35,-55,37,8,-35,-70,127,48,127,35,6,-1,127,29,-96,47,-38,-35,-102,40,98,103,29,-59, 127,127,127,127,-46,-127,127,23,127,-127,16,-127,-107,127,127,127,-16,-127,-61,-127,127,23,-68,127,127,127,-55,-127,127,127,-127,127,-9,-127,-124,127,-127,-44,95,109,-127,-127,127,127,127,-117,-107,127,-13,127,-127,-127,-127,127,127,-127,127,-127,-43,40,-105,-27,-70,-68,127,127,-72,127,127,-107,-127,127,-42,127,-127,-127,-127,124,-75,127,-43,127,79,127,-38,-127,-25,-107,-127,-127,-23,-127,-22,-127,-127,117, -24,66,-38,2,127,70,-21,49,5,23,-13,-5,-26,-31,-13,-7,-104,-22,-127,39,30,77,-12,-115,-34,-41,124,72,10,35,72,8,125,-47,127,-3,55,5,-93,14,36,23,-23,1,-23,-52,-12,-42,81,14,-12,40,-6,-4,-75,-14,24,20,127,-89,2,127,0,-36,-111,-28,-75,100,15,-17,112,24,-17,-56,12,47,-29,-7,-43,-3,-46,8,46,24,-89,35,127,-47,32,-22,127,-10,-113,35,34,19, 
  /* [0][2][][] */ -4,-40,-21,-61,-4,14,40,31,-2,10,-20,52,24,-34,-7,7,41,2,13,21,-10,30,-17,-25,2,-24,9,3,-10,-7,49,-75,-38,67,-28,-25,31,-35,-63,17,9,9,-34,20,13,-77,-12,-1,-9,6,17,-8,7,1,-22,6,-1,44,-49,34,-5,-12,5,17,-6,-10,22,-53,-56,11,-21,-12,-119,-32,0,18,14,-12,56,17,22,22,-40,15,12,25,-21,10,5,25,23,-6,20,40,-7,-30, -28,-10,-27,23,-45,74,-25,66,6,-6,54,-12,127,-7,-18,-18,-1,-40,-56,24,-23,79,-45,-111,-47,-47,101,70,13,43,54,-2,-123,63,-15,-23,-29,-27,-127,-4,45,-14,-15,37,-26,-44,-18,-48,-60,28,68,25,-11,-80,29,52,17,26,75,-55,20,-57,-8,0,19,-26,-127,-56,-11,-27,-63,23,36,-46,-30,-7,-44,23,-56,1,49,35,19,11,5,63,-92,127,16,127,-30,-19,115,-21,46,83, -9,-34,-26,29,12,65,-43,13,4,-7,0,14,12,-50,-10,-13,-44,-6,18,20,-24,6,-21,4,-4,19,-3,52,-2,-6,34,29,17,42,19,-23,-6,-26,-30,8,11,-12,22,9,-74,-32,-13,4,-2,-16,-1,-4,-9,9,-17,-5,-1,-50,13,-29,-21,49,9,-29,-10,-2,36,-55,45,7,52,-21,31,-55,-18,22,11,11,-5,22,-30,32,89,-14,-17,55,38,-9,109,12,2,-19,10,-22,-6,-50, 
};
const TfArray<96, float> quant13_scale = { 96, { 0.0076755108311772346, 0.0048945355229079723, 0.011772518046200275, 0.0017391829751431942, 0.0075681703165173531, 0.0067726699635386467, 0.012384052388370037, 0.0036486692260950804, 0.0060519138351082802, 0.017389196902513504, 0.0067879920825362206, 0.014660603366792202, 0.0038860286585986614, 0.016749994829297066, 0.0081214569509029388, 0.0061882971785962582, 0.004347573034465313, 0.012583251111209393, 0.0024540796875953674, 0.013337781652808189, 0.0022377993445843458, 0.007952224463224411, 0.0052651981823146343, 0.016051916405558586, 0.0080546187236905098, 0.01011959370225668, 0.0067321709357202053, 0.0073269130662083626, 0.0053565432317554951, 0.0045206630602478981, 0.0062971976585686207, 0.0074148224666714668, 0.0053690057247877121, 0.0067449514754116535, 0.0090309791266918182, 0.0074731227941811085, 0.016696030274033546, 0.0051631946116685867, 0.0018215540330857038, 0.0058446642942726612, 0.010274831205606461, 0.014135982841253281, 0.014254805631935596, 0.0061222119256854057, 0.0085828164592385292, 0.0019745924510061741, 0.008909774012863636, 0.011531494557857513, 0.0039315470494329929, 0.0079641351476311684, 0.0089897941797971725, 0.0065776612609624863, 0.010069635696709156, 0.012012499384582043, 0.012187927030026913, 0.01829538494348526, 0.012873650528490543, 0.0090264491736888885, 0.004767565056681633, 0.0034437144640833139, 0.01269149873405695, 0.0059363087639212608, 0.011496231891214848, 0.0057591316290199757, 0.0082420511171221733, 0.0075281313620507717, 0.003490957897156477, 0.0027935761027038097, 0.01393416803330183, 0.010305145755410194, 0.0094513967633247375, 0.0044867242686450481, 0.0046401666477322578, 0.0054113678634166718, 0.0069417157210409641, 0.011336845345795155, 0.022812161594629288, 0.0022502555511891842, 0.011348633095622063, 0.010677034966647625, 0.0068360837176442146, 0.011299327947199345, 0.0045815762132406235, 0.0068578706122934818, 0.0055149332620203495, 0.0039447848685085773, 0.0057742288336157799, 0.0084541337564587593, 0.0081316446885466576, 0.0045821471139788628, 0.0085679497569799423, 0.0051445132121443748, 0.0062068351544439793, 0.018365157768130302, 0.11392004787921906, 0.0032741355244070292, } };
const TfLiteAffineQuantization quant13 = { (TfLiteFloatArray*)&quant13_scale, (TfLiteIntArray*)&g0::quant2_zero, 3 };
const MODEL_SECTION(EI_MODEL_SECTION) ALIGN(16) int32_t tensor_data14[96] = { 26095, 1859, 12787, -1065, 8319, 8265, 22581, 9063, -2009, 27357, 10528, 2253, 9911, 56352, -760, -3238, 14402, 18705, 2801, -279, -1100, 21690, 6630, 4977, 12539, 8010, 8453, 6286, 90, -31, 9662, 14103, 23882, 2566, 11320, -822, 28976, 10349, 1044, 7452, 1089, 18373, 18246, 6289, 4548, 16940, 19808, 9448, 6966, 5077, 478, -1039, 25541, 9996, 11418, 23414, -428, 10995, 5074, 5810, 18573, 10857, 4247, 9673, 8748, 6578, 9390, -1204, 24852, 11382, 15141, -1884, -2284, 4934, 2634, 4609, 35530, 20180, 18807, -3736, 8740, -8643, -3249, 958, 10367, 8080, 9826, 7873, 17651, 5971, 12381, 5835, 21344, 31956, -14199, 21214, };
const TfArray<96, float> quant14_scale = { 96, { 9.926486382028088e-05, 0.00018199044279754162, 0.00010628170275595039, 0.00051856506615877151, 0.00019271631026640534, 0.00011205177725059912, 0.00013834710989613086, 0.00038757300353609025, 0.00022813606483396143, 6.5923166403081268e-05, 0.00013584746920969337, 0.00036498749977909029, 0.00027801678515970707, 8.5594045231118798e-05, 0.00014386452676262707, 0.00021402875427156687, 0.00015417514077853411, 0.00012507068458944559, 0.00016042837523855269, 0.0004113564791623503, 0.0002485733712092042, 0.00011403248936403543, 0.00022783759050071239, 0.00015855864330660552, 0.00014100325643084943, 0.00026017360505647957, 0.00016938992484938353, 0.00014226623170543462, 0.00041365399374626577, 0.0002750344283413142, 0.00014870580343995243, 0.0001335447741439566, 8.2482518337201327e-05, 0.00042225650395266712, 0.00014785867824684829, 0.00033982601598836482, 7.812372496118769e-05, 0.0002547717303968966, 0.00043728068703785539, 0.00012831461208406836, 0.00045132471132092178, 0.00010278879199177027, 0.00011690071551129222, 0.0001187035595648922, 0.00024682795628905296, 0.00019287581380922347, 0.00014361098874360323, 0.00015433083171956241, 0.00022850332607049495, 0.00017466375720687211, 0.00028282188577577472, 0.00062837294535711408, 0.00010480407217983156, 0.00015908008208498359, 0.00020425397087819874, 7.9005068982951343e-05, 0.00026385049568489194, 0.00015806543524377048, 0.0001544771803310141, 0.00027930911164730787, 9.1249625256750733e-05, 0.00012866483302786946, 0.00024819222744554281, 0.00028619336080737412, 0.00012073086691088974, 0.00017061173275578767, 0.00020721885084640235, 0.00028299388941377401, 0.00010825209028553218, 0.0001015043308143504, 0.00013185440911911428, 0.0002512353821657598, 0.00016738077101763338, 0.00026533775962889194, 0.00016208286979235709, 0.00027709704590961337, 6.6584951127879322e-05, 0.00022290264314506203, 8.8830500317271799e-05, 0.00032642774749547243, 0.00012475845869630575, 0.00024049771309364587, 0.00011866007844218984, 0.00027366034919396043, 0.00015381704724859446, 0.00019420850730966777, 0.00016542419325560331, 0.00017556316743139178, 9.5647148555144668e-05, 0.00026766263181343675, 0.00011276479199295864, 0.00029029397410340607, 9.8804754088632762e-05, 8.6237829236779362e-05, 0.00020633218809962273, 0.00015451957006007433, } };
const TfLiteAffineQuantization quant14 = { (TfLiteFloatArray*)&quant14_scale, (TfLiteIntArray*)&g0::quant2_zero, 0 };
const MODEL_SECTION(EI_MODEL_SECTION) ALIGN(16) int8_t tensor_data15[96*1*1*16] = { 
  /* [0][0][][] */ 46,-22,127,108,71,-29,27,-29,121,-18,-57,-74,33,88,-41,-82, 
  /* [1][0][][] */ 34,79,-8,-3,92,-4,11,29,56,75,-34,127,1,-26,97,-94, 
  /* [2][0][][] */ 23,-57,1,-2,-60,34,-50,89,-79,-91,10,80,-9,-127,84,-93, 
  /* [3][0][][] */ 127,125,-4,37,-125,-14,-66,-27,1,-2,110,-70,-58,96,-47,-37, 
  /* [4][0][][] */ 4,-4,20,10,-26,30,-17,43,-65,-37,-4,-3,-5,-127,25,2, 
  /* [5][0][][] */ 127,-49,-25,3,-10,-120,-28,16,-5,10,-126,-6,23,-7,-6,29, 
  /* [6][0][][] */ -127,-72,-12,97,-53,1,-46,29,-121,-76,-72,-33,27,59,-8,102, 
  /* [7][0][][] */ -18,14,-76,48,40,-127,-24,41,11,-30,15,-5,-1,18,-41,15, 
  /* [8][0][][] */ 33,-50,-10,-11,10,28,-59,-63,-12,12,-71,9,-127,0,1,24, 
  /* [9][0][][] */ 25,-54,61,127,3,24,-6,-75,126,-91,1,-21,-6,50,-70,17, 
  /* [10][0][][] */ -127,-73,-9,-50,117,49,47,73,120,-76,-90,33,100,-116,-121,83, 
  /* [11][0][][] */ 41,-15,-127,19,52,24,-21,41,-12,-33,-12,-7,-2,21,-42,4, 
  /* [12][0][][] */ 106,-56,9,3,-5,-62,-61,-26,40,-2,-127,-20,-53,-15,0,59, 
  /* [13][0][][] */ 38,-76,24,-61,100,11,-104,-127,45,-71,21,14,15,-16,26,0, 
  /* [14][0][][] */ -55,29,-93,-48,90,-127,62,-61,61,48,-7,-99,24,119,-19,27, 
  /* [15][0][][] */ 26,-6,61,40,50,-44,-38,-13,20,-61,-67,-8,-127,-52,-14,52, 
  /* [16][0][][] */ -127,64,5,12,-2,93,44,75,-20,28,126,9,-4,8,10,-47, 
  /* [17][0][][] */ -10,-8,-44,-34,-35,11,42,77,-24,127,-21,10,-8,80,64,-1, 
  /* [18][0][][] */ 4,127,-52,1,7,3,60,-68,26,118,-54,112,9,-46,34,-99, 
  /* [19][0][][] */ 7,-17,35,18,6,45,-6,16,13,6,-42,-7,-127,1,-11,27, 
  /* [20][0][][] */ 91,-58,-9,-88,-30,22,30,-86,-57,28,-127,-40,30,1,55,10, 
  /* [21][0][][] */ 50,-9,127,48,-21,54,25,0,0,28,-20,-9,-14,81,2,-10, 
  /* [22][0][][] */ 29,6,18,10,-16,0,27,127,13,1,10,32,4,37,23,20, 
  /* [23][0][][] */ -23,18,-81,13,19,-127,9,36,-1,-24,-12,-6,-61,6,-4,37, 
  /* [24][0][][] */ 40,-63,5,-57,58,-2,-27,-10,34,30,60,95,-45,84,127,36, 
  /* [25][0][][] */ -127,-94,-45,5,13,5,11,-35,-59,3,-80,15,21,38,28,54, 
  /* [26][0][][] */ 9,0,47,-3,-9,12,-35,62,-79,-61,-6,14,6,-127,39,-16, 
  /* [27][0][][] */ -97,41,-46,31,34,-25,2,27,36,-31,127,26,-21,6,-13,-26, 
  /* [28][0][][] */ -17,-8,21,34,-1,3,12,83,27,14,-23,-5,-127,-9,-13,37, 
  /* [29][0][][] */ -11,63,40,-37,37,-16,22,-24,-127,32,-30,4,1,33,-87,11, 
  /* [30][0][][] */ -10,-7,-127,-34,23,-63,-1,18,-18,-14,-6,-21,-36,-23,10,19, 
  /* [31][0][][] */ 127,-34,-120,10,40,4,-47,60,-17,-7,-77,-47,11,-9,-84,28, 
  /* [32][0][][] */ -122,50,30,45,18,97,22,35,23,-2,127,7,-32,22,-17,-27, 
  /* [33][0][][] */ 8,-15,127,-20,-64,24,6,-37,-5,9,-7,21,-6,21,37,19, 
  /* [34][0][][] */ -17,-22,-48,-118,25,9,6,-29,-29,-58,-33,-127,-16,0,48,10, 
  /* [35][0][][] */ 1,-35,39,48,53,-20,19,-18,-116,39,-10,26,-21,127,-43,-40, 
  /* [36][0][][] */ -121,54,-34,-2,-15,48,52,95,-5,35,127,-11,6,17,14,-28, 
  /* [37][0][][] */ -36,11,127,-31,-75,-64,24,-36,18,20,-4,6,-1,-64,65,12, 
  /* [38][0][][] */ 13,-14,-12,26,35,-51,-57,9,-17,-17,69,-10,127,27,-14,8, 
  /* [39][0][][] */ -26,-18,-9,-47,-58,-91,68,127,-40,-11,4,-50,2,54,62,67, 
  /* [40][0][][] */ 68,-6,-16,-12,-7,84,-16,8,15,-4,15,0,127,12,-27,-21, 
  /* [41][0][][] */ -7,-8,-34,-127,28,-5,-27,-73,-8,-49,11,-37,-8,-19,-18,31, 
  /* [42][0][][] */ 48,53,5,105,-117,-5,-98,2,-80,-62,79,-87,-44,127,-45,12, 
  /* [43][0][][] */ 17,114,-28,127,21,23,41,-72,-42,81,-6,26,5,-44,45,36, 
  /* [44][0][][] */ -8,-27,-127,23,54,79,-46,54,-14,-22,37,-22,7,-27,-55,1, 
  /* [45][0][][] */ 3,18,-10,-127,-21,-1,51,-8,-11,24,-31,13,5,-91,33,-32, 
  /* [46][0][][] */ 12,28,58,-19,13,12,-48,52,18,-47,-27,13,9,127,50,-16, 
  /* [47][0][][] */ 16,-20,22,-40,-37,17,-64,54,-12,-33,17,32,8,-127,40,13, 
  /* [48][0][][] */ 6,-11,9,-127,-8,-17,-7,7,13,-30,14,-15,6,46,-7,57, 
  /* [49][0][][] */ 33,-36,-2,120,95,14,4,51,-58,17,40,43,-14,41,127,-12, 
  /* [50][0][][] */ -23,-14,73,-24,4,127,-29,-63,40,-27,118,32,98,-5,-5,-61, 
  /* [51][0][][] */ 29,48,13,11,19,4,-43,20,44,1,-2,127,13,31,30,-55, 
  /* [52][0][][] */ -26,60,127,7,19,-33,13,-52,-29,9,12,38,-5,94,-122,-18, 
  /* [53][0][][] */ -6,-18,-45,-127,-47,8,21,-35,-19,43,11,-2,19,-25,49,11, 
  /* [54][0][][] */ 8,12,-28,-51,21,9,-14,10,61,-25,5,-30,-11,127,21,32, 
  /* [55][0][][] */ -8,-32,-42,-11,11,-52,-18,-127,9,-98,-12,-6,-30,-75,-44,-13, 
  /* [56][0][][] */ 40,44,30,60,5,-21,16,127,23,-24,4,-34,78,-12,-49,35, 
  /* [57][0][][] */ 78,-24,127,-27,-66,-52,-2,-33,20,6,-105,28,59,-45,56,23, 
  /* [58][0][][] */ 108,100,15,116,-127,-20,-5,47,-10,23,94,-29,-77,-59,-25,-87, 
  /* [59][0][][] */ 127,-41,-6,0,-24,-15,-7,8,-28,22,-124,-13,15,-5,3,27, 
  /* [60][0][][] */ -127,34,-6,-3,13,14,19,31,9,8,96,0,-36,0,17,-15, 
  /* [61][0][][] */ -108,66,25,27,32,1,-75,-60,127,-97,81,-3,55,-43,-105,-61, 
  /* [62][0][][] */ -21,-41,-127,58,68,103,-4,100,24,-58,40,-14,-78,-3,-105,-11, 
  /* [63][0][][] */ -44,12,127,-40,-58,-57,31,-33,5,17,2,11,-12,-51,74,15, 
  /* [64][0][][] */ 28,65,-11,27,62,-6,91,-127,-18,111,5,-21,-18,-114,-4,50, 
  /* [65][0][][] */ 5,23,7,-22,65,10,1,-127,-24,-57,-28,-49,-8,-39,38,19, 
  /* [66][0][][] */ -127,2,-18,8,-44,19,12,-40,-77,-36,-79,50,57,21,48,80, 
  /* [67][0][][] */ -6,-45,1,127,3,-6,-24,35,60,27,6,-17,-6,-36,-87,-19, 
  /* [68][0][][] */ 10,3,-10,127,-53,-17,0,-30,-47,28,14,-25,-25,-63,-28,-48, 
  /* [69][0][][] */ 86,93,16,117,47,-16,62,-127,14,105,17,55,5,-40,29,-15, 
  /* [70][0][][] */ 14,-40,-1,-100,127,-42,46,15,84,-31,71,-59,8,108,77,123, 
  /* [71][0][][] */ 12,46,10,85,46,-127,-40,95,39,-93,16,14,12,-53,-61,34, 
  /* [72][0][][] */ -127,-73,-17,50,16,37,-28,18,-49,-30,-92,38,52,18,3,96, 
  /* [73][0][][] */ -18,-18,-11,60,18,-19,-2,-16,73,11,-3,8,21,127,-57,-42, 
  /* [74][0][][] */ 76,-45,19,-30,-44,-19,39,-16,-43,-9,-119,26,-127,-12,33,50, 
  /* [75][0][][] */ -16,-16,-24,127,-34,9,0,-21,-70,22,-15,-27,0,-51,-17,-34, 
  /* [76][0][][] */ 0,-11,-4,45,36,12,-22,-127,16,-125,6,23,-26,-20,32,-41, 
  /* [77][0][][] */ 127,-33,33,50,-39,-3,-41,-6,43,-9,-41,51,37,13,-51,35, 
  /* [78][0][][] */ -15,-4,49,-3,11,-12,-63,33,45,-29,-40,-34,16,127,33,-29, 
  /* [79][0][][] */ -4,19,47,18,43,60,-50,-53,13,-47,73,-16,127,-23,-29,-42, 
  /* [80][0][][] */ -123,-90,-81,127,9,38,33,-14,-82,33,-100,15,54,-86,-13,48, 
  /* [81][0][][] */ 62,7,-70,38,127,93,-40,-39,-7,-110,-20,-82,-31,-11,-101,25, 
  /* [82][0][][] */ 122,122,-4,38,-127,-20,-75,-23,-71,-2,115,-59,-55,98,-2,-39, 
  /* [83][0][][] */ 127,42,14,-23,8,-13,-10,28,37,16,84,-33,-53,-28,-26,-80, 
  /* [84][0][][] */ 3,-54,-57,-28,43,24,-5,-127,-24,-54,27,12,-25,-5,0,-13, 
  /* [85][0][][] */ -26,-4,-43,-51,-5,-6,74,87,-13,127,-7,-44,29,63,64,-24, 
  /* [86][0][][] */ 102,-26,8,0,0,-31,-4,-22,0,2,-127,6,17,19,-12,23, 
  /* [87][0][][] */ -25,36,15,-37,-10,74,-29,54,-6,-32,31,10,10,-127,13,5, 
  /* [88][0][][] */ 1,-22,-97,-46,61,-10,-35,-127,5,-32,-10,-28,-39,-5,26,-21, 
  /* [89][0][][] */ 26,-20,28,-127,35,6,-53,112,81,-77,32,12,-9,41,30,46, 
  /* [90][0][][] */ -9,15,-41,56,71,-4,105,-92,69,127,-40,41,20,-1,-14,-20, 
  /* [91][0][][] */ 43,-16,-42,-11,-1,-127,-13,-5,-6,-4,-47,-6,30,-12,9,25, 
  /* [92][0][][] */ 20,4,127,61,42,17,0,44,-32,27,-65,29,25,88,-1,-8, 
  /* [93][0][][] */ 127,-38,-41,-14,-31,-57,11,40,-27,42,-124,-7,1,16,-1,49, 
  /* [94][0][][] */ 16,-19,44,77,111,-32,-10,57,7,-15,-2,55,-6,127,-23,-77, 
  /* [95][0][][] */ -117,42,40,40,19,43,21,4,11,5,127,-4,-21,33,-16,-30, 
};
const TfArray<96, float> quant15_scale = { 96, { 0.00047287641791626811, 0.00086696323705837131, 0.00050630309851840138, 0.0024703321978449821, 0.00091805896954610944, 0.0005337905022315681, 0.00065905577503144741, 0.001846314175054431, 0.0010867910459637642, 0.00031404374749399722, 0.00064714805921539664, 0.0017387217376381159, 0.0013244120636954904, 0.00040775156230665743, 0.00068533956073224545, 0.0010195868089795113, 0.00073445710586383939, 0.00059580977540463209, 0.00076424621511250734, 0.001959613524377346, 0.0011841499945148826, 0.00054322619689628482, 0.00108536914922297, 0.00075533916242420673, 0.00067170907277613878, 0.0012394109508022666, 0.00080693705240264535, 0.00067772564943879843, 0.0019705584272742271, 0.0013102047378197312, 0.00070840236730873585, 0.00063617853447794914, 0.00039292892324738204, 0.0020115389488637447, 0.00070436688838526607, 0.0016188578447327018, 0.00037216456257738173, 0.0012136775767430663, 0.0020831108558923006, 0.00061126315267756581, 0.0021500135771930218, 0.00048966362373903394, 0.00055688980501145124, 0.00056547817075625062, 0.0011758351465687156, 0.00091881875414401293, 0.00068413180997595191, 0.00073519878787919879, 0.0010885405354201794, 0.00083206046838313341, 0.0013473024591803551, 0.0029934332706034184, 0.00049926398787647486, 0.00075782323256134987, 0.0009730218444019556, 0.00037636311026290059, 0.001256926916539669, 0.00075298966839909554, 0.00073589594103395939, 0.0013305683387443423, 0.0004346935311332345, 0.00061293150065466762, 0.0011823342647403479, 0.0013633634662255645, 0.00057513581123203039, 0.00081275746924802661, 0.00098714593332260847, 0.0013481219066306949, 0.00051568960770964622, 0.00048354474711231887, 0.00062812597025185823, 0.0011968311155214906, 0.00079736590851098299, 0.0012640118366107345, 0.0007721278234384954, 0.00132003054022789, 0.00031719633261673152, 0.001061860122717917, 0.00042316934559494257, 0.0015550313983112574, 0.00059432239504531026, 0.0011456792708486319, 0.00056527100969105959, 0.0013036588206887245, 0.0007327512139454484, 0.00092516746371984482, 0.00078804517397657037, 0.00083634507609531283, 0.00045564238098450005, 0.0012750871246680617, 0.00053718715207651258, 0.0013828978408128023, 0.00047068455023691058, 0.0004108184075448662, 0.0009829220362007618, 0.00073609792161732912, } };
const TfLiteAffineQuantization quant15 = { (TfLiteFloatArray*)&quant15_scale, (TfLiteIntArray*)&g0::quant2_zero, 0 };
const MODEL_SECTION(EI_MODEL_SECTION) ALIGN(16) int32_t tensor_data16[16] = { -37878, 3627, 2444, -7987, 730, -6552, -11180, -42366, 3805, 24126, 32607, -9543, -2233, -22087, 39929, -44759, };
const TfArray<16, float> quant16_scale = { 16, { 0.00074144051177427173, 0.00085913512157276273, 0.0011342164361849427, 0.0010289738420397043, 0.00093652482610195875, 0.0010348535142838955, 0.0011845577973872423, 0.00060204189503565431, 0.00056629220489412546, 0.00062772043747827411, 0.00090275198454037309, 0.00062282325234264135, 0.00094584492035210133, 0.0012992607662454247, 0.00060514832148328424, 0.00064192496938630939, } };
const TfLiteAffineQuantization quant16 = { (TfLiteFloatArray*)&quant16_scale, (TfLiteIntArray*)&g0::quant4_zero, 0 };
const MODEL_SECTION(EI_MODEL_SECTION) ALIGN(16) int8_t tensor_data17[16*1*1*48] = { 
  /* [0][0][][] */ -16,-3,-23,9,24,-2,2,105,-51,16,42,-6,17,-16,-13,14,15,-13,-8,-4,64,-7,21,127,-16,87,-5,-14,26,-16,25,-25,-17,52,20,-48,16,48,18,-12,-108,-26,20,43,36,27,-125,-50, 
  /* [1][0][][] */ -37,-12,21,14,-33,11,1,56,-55,-34,6,-44,-22,-18,0,-3,-25,119,-10,18,8,8,-28,-16,25,-43,17,24,-26,-86,-38,21,-21,-5,32,-2,-4,-41,2,17,-19,-31,127,12,10,-1,23,-12, 
  /* [2][0][][] */ -21,-7,-13,-36,-2,-65,5,-21,1,13,16,26,15,15,-13,8,-4,-20,-25,-13,-4,-1,-1,-127,-13,74,-15,4,-1,-20,-3,-6,-7,54,11,-1,22,11,26,1,-40,3,-19,-6,-1,-10,15,8, 
  /* [3][0][][] */ -7,32,2,-30,-1,0,2,-4,-19,-3,0,38,-127,6,-5,-2,1,5,-18,-2,-30,8,6,16,-7,-11,3,24,-9,18,4,17,4,1,17,19,-10,26,41,4,10,6,23,-29,8,-5,4,19, 
  /* [4][0][][] */ 36,-32,9,11,20,28,23,-24,-30,3,-12,-19,1,12,1,16,21,-8,-79,3,-5,11,14,72,1,-27,6,48,9,-74,19,7,13,-35,32,-127,12,36,-2,18,-19,18,8,-23,-11,-20,9,6, 
  /* [5][0][][] */ 30,1,-20,58,0,-7,7,24,2,-4,40,8,3,52,2,1,-24,21,28,3,10,4,2,-25,1,-51,2,-20,-4,-9,3,7,66,-127,3,30,-14,-12,14,4,-91,56,20,-4,-5,-2,-100,-8, 
  /* [6][0][][] */ 24,-3,5,6,-13,-5,3,-13,-3,6,-1,6,-17,7,4,5,0,-11,127,8,6,9,16,-34,5,3,25,-12,-12,-4,-4,7,0,-11,30,-37,0,-44,70,13,1,-7,-7,6,-10,2,7,-12, 
  /* [7][0][][] */ -45,-14,-10,35,-9,78,-5,45,0,29,-6,127,76,-4,-8,-4,-6,-24,-7,-18,-29,-6,-19,67,0,-37,-51,-30,-11,-13,-13,-11,4,0,-22,4,8,-58,96,-3,23,28,-62,-59,16,-9,4,3, 
  /* [8][0][][] */ -48,-49,-1,4,-5,2,-1,32,-3,-69,3,41,50,6,8,6,-13,61,-31,5,-50,22,-6,-12,0,1,4,44,-9,116,-11,20,-4,3,-19,-127,-114,69,33,27,20,-4,109,-23,9,29,20,32, 
  /* [9][0][][] */ -24,5,-5,31,19,-33,-4,-2,59,-41,9,57,-56,5,14,1,-7,18,-36,-22,51,8,-13,-16,3,10,48,-25,10,11,11,-2,-4,19,75,-103,-9,-127,-94,7,-29,26,56,9,4,9,-16,-42, 
  /* [10][0][][] */ -22,-8,-34,-127,43,89,9,-12,-2,34,24,9,48,-48,-32,21,34,-43,53,-33,31,-24,38,51,-48,-108,7,-32,48,33,44,-45,-28,-82,25,-6,17,-42,7,-34,-35,-63,-13,11,14,14,17,-35, 
  /* [11][0][][] */ -1,52,-6,63,36,-66,-81,-17,2,61,-16,2,-9,54,-3,-79,19,43,5,-8,-55,-106,12,2,12,-40,18,-19,54,-37,23,-85,47,-19,-37,-92,91,22,8,-127,-3,65,97,-73,-9,-55,32,31, 
  /* [12][0][][] */ 127,-3,-15,15,2,19,4,100,21,-12,-58,-23,0,14,-10,-3,-9,7,-3,-4,5,2,3,20,-1,15,-3,5,-4,14,-4,3,3,-65,-9,11,-18,-16,-30,1,-15,-79,6,-125,-55,-11,80,-5, 
  /* [13][0][][] */ 10,3,0,6,7,-10,2,1,0,6,4,22,-5,3,5,0,6,1,10,3,12,-11,8,-3,2,1,17,127,11,-4,7,-3,4,0,-38,20,9,-5,6,-15,-13,-3,1,5,-1,-2,-8,-13, 
  /* [14][0][][] */ 63,-22,47,-70,51,28,40,-99,-56,-56,-5,123,-71,-5,64,14,54,26,-54,69,20,15,74,-16,24,58,-33,-118,29,-36,61,48,-6,72,-127,-50,-40,44,89,9,-36,8,56,1,0,1,14,-29, 
  /* [15][0][][] */ -7,-51,-75,-37,57,28,77,-51,-10,22,-18,-35,83,22,-102,65,61,52,80,-85,-103,-25,57,-15,-95,45,29,57,56,52,48,-48,23,61,98,127,-19,-112,-9,-35,95,61,117,-53,-4,-33,-17,66, 
};
const TfArray<4, int> tensor_dimension17 = { 4, { 16,1,1,48 } };
const TfArray<16, float> quant17_scale = { 16, { 0.031511221081018448, 0.036513242870569229, 0.048204198479652405, 0.043731387704610825, 0.039802305400371552, 0.043981272727251053, 0.050343703478574753, 0.025586780160665512, 0.024067418649792671, 0.026678116992115974, 0.038366958498954773, 0.026469986885786057, 0.04019840806722641, 0.055218581110239029, 0.025718802586197853, 0.027281811460852623, } };
const TfLiteAffineQuantization quant17 = { (TfLiteFloatArray*)&quant17_scale, (TfLiteIntArray*)&g0::quant4_zero, 0 };
const MODEL_SECTION(EI_MODEL_SECTION) ALIGN(16) int32_t tensor_data18[48] = { 2480, 37693, -1210, 39020, 4482, 126858, -2198, 48255, 2955, 33301, 24079, 1450, 1039, 29157, -610, -1711, -456, -177, 658, -2278, 109, -2465, -623, -19497, -4507, 41659, 121844, 106929, 3264, 5679, -1840, 439, 23313, 428, 37500, 442, 57305, 1277, 46637, 2322, 1442, 58686, -180, 2637, 50735, -438, 1925, 48884, };
const TfArray<1, int> tensor_dimension18 = { 1, { 48 } };
const TfArray<48, float> quant18_scale = { 48, { 7.8889475844334811e-05, 3.6051482311449945e-05, 0.00017121872224379331, 5.6624834542162716e-05, 0.00014056712097954005, 6.6709653765428811e-05, 0.00015690129657741636, 0.00012139955651946366, 8.0798155977390707e-05, 4.0620489016873762e-05, 4.9931939429370686e-05, 9.8975258879363537e-05, 4.2439100070623681e-05, 3.8218870031414554e-05, 0.00015964711201377213, 0.00019569844880606979, 0.00017504020070191473, 7.8054559708107263e-05, 0.00013275511446408927, 0.00013924689847044647, 8.8694818259682506e-05, 0.00018580173491500318, 0.00010602323163766414, 0.00012716074706986547, 0.00010113322787219658, 0.00010686963651096448, 2.2002022888045758e-05, 6.3655374106019735e-05, 0.00011849977454403415, 9.3397640739567578e-05, 0.000110873173980508, 0.0001410605909768492, 5.1531082135625184e-05, 0.00013711040082853287, 2.8658138035098091e-05, 5.5058542784536257e-05, 0.00010171679605264217, 9.3733018729835749e-05, 0.00012659250933211297, 8.4393985162023455e-05, 0.00010447709064465016, 9.9605589639395475e-05, 8.7720880401320755e-05, 9.090775711229071e-05, 3.154970909235999e-05, 0.00016503753431607038, 0.00010339150321669877, 3.1792227673577145e-05, } };
const TfArray<48, int> quant18_zero = { 48, { 0,0,0,0,0,0,0,0,0,0,0,0,0,0,0,0,0,0,0,0,0,0,0,0,0,0,0,0,0,0,0,0,0,0,0,0,0,0,0,0,0,0,0,0,0,0,0,0 } };
const TfLiteAffineQuantization quant18 = { (TfLiteFloatArray*)&quant18_scale, (TfLiteIntArray*)&quant18_zero, 0 };
const MODEL_SECTION(EI_MODEL_SECTION) ALIGN(16) int8_t tensor_data19[1*3*3*48] = { 
  /* [0][0][][] */ 69,-92,97,70,53,-34,106,-64,59,-88,-80,47,51,-42,-72,-90,101,78,49,78,66,-74,-83,50,-32,-40,-64,-64,-67,61,-63,-114,-13,41,68,64,-65,53,-50,-22,50,-74,57,62,-94,11,75,-33, 82,-96,127,85,-77,-68,-57,-84,96,-102,-63,74,79,-109,-96,91,-38,96,82,127,85,-116,52,71,-52,-77,-69,-80,56,79,-30,-127,-86,79,81,83,-82,82,-82,-16,76,-94,83,89,-73,-127,93,-103, 34,-46,70,37,18,-41,-47,-39,42,-31,5,34,29,-78,-55,-2,-54,37,34,70,33,-55,31,26,-28,-45,-44,-22,31,30,88,-89,-84,43,35,34,-29,39,-37,-10,40,-40,34,42,-6,-9,36,-73, 
  /* [0][1][][] */ 92,-112,-41,93,55,-82,127,-89,87,-113,-72,82,83,-110,-13,-127,127,107,74,-38,84,108,-127,73,73,-75,-93,-98,-127,86,-69,-9,-88,70,106,96,-85,79,-80,89,84,-101,87,90,-89,107,94,-91, 127,-127,-65,127,-127,-127,-91,-127,127,-127,-127,127,127,-127,-22,96,-66,127,127,-51,127,127,69,127,127,-127,-127,-127,53,127,-28,16,-127,127,127,127,-127,127,-127,127,127,-127,127,127,-127,-11,127,-127, 63,-78,-33,66,37,-62,-49,-62,56,-42,-60,58,48,-53,-16,10,-63,50,58,-30,57,64,50,64,66,-64,-61,-44,36,54,127,15,-62,69,48,49,-49,60,-59,56,60,-58,54,62,-62,-67,58,-57, 
  /* [0][2][][] */ 45,-50,-46,50,26,-53,64,-42,41,-72,-4,39,55,-72,83,-79,73,50,34,-30,26,-11,-77,30,-24,-44,-48,-48,-74,31,-41,90,-73,36,48,42,-26,37,-42,-87,47,-50,40,44,-23,16,40,-74, 72,-74,-48,80,-57,-64,-72,-67,51,-77,-66,60,74,-48,127,32,-47,59,61,-43,54,-18,41,66,-49,-66,-77,-61,31,61,-24,117,-55,64,57,57,-49,61,-66,-105,68,-67,60,62,-86,49,63,-52, 41,-40,-27,46,28,-20,-17,-34,14,-26,-52,28,31,5,67,24,-36,22,28,-32,28,-1,39,41,-24,-28,-48,-24,33,33,61,67,1,33,15,22,-22,30,-29,-55,28,-32,25,29,-63,9,31,-4, 
};
const TfArray<4, int> tensor_dimension19 = { 4, { 1,3,3,48 } };
const TfArray<48, float> quant19_scale = { 48, { 0.003352802712470293, 0.0015321880346164107, 0.0072767958045005798, 0.0024065554607659578, 0.0059741022996604443, 0.0028351601213216782, 0.0066683050245046616, 0.0051594809629023075, 0.0034339216072112322, 0.0017263707704842091, 0.0021221074275672436, 0.0042064483277499676, 0.0018036616966128349, 0.0016243018908426166, 0.0067850020714104176, 0.0083171837031841278, 0.0074392086826264858, 0.0033173186238855124, 0.0056420923210680485, 0.0059179933741688728, 0.0037695297505706549, 0.0078965732827782631, 0.0045059872791171074, 0.0054043317213654518, 0.0042981621809303761, 0.0045419596135616302, 0.00093508593272417784, 0.0027053533121943474, 0.0050362404435873032, 0.0039693997241556644, 0.0047121099196374416, 0.0059950747527182102, 0.0021900709252804518, 0.0058271917514503002, 0.0012179708573967218, 0.0023399880155920982, 0.0043229637667536736, 0.003983653150498867, 0.0053801815956830978, 0.0035867441911250353, 0.0044402764178812504, 0.0042332373559474945, 0.0037281373515725136, 0.0038635795935988426, 0.0013408625964075327, 0.007014094851911068, 0.0043941386975347996, 0.001351169659756124, } };
const TfLiteAffineQuantization quant19 = { (TfLiteFloatArray*)&quant19_scale, (TfLiteIntArray*)&g0::quant18_zero, 3 };
const MODEL_SECTION(EI_MODEL_SECTION) ALIGN(16) int32_t tensor_data20[48] = { 817, 1104, 2662, 685, 12096, 20252, 3121, -55, -1037, -714, 1410, 1294, 4139, 1440, 32811, 3840, 2418, -1392, -325, 4196, -2325, 14238, 12940, 12659, 7248, 401, 5725, 6329, 11057, -679, 12163, 7577, 697, -210, 5969, 4540, -2408, 386, -918, 6853, 1316, -758, -1173, 40, 1389, 4783, 950, 1318, };
const TfArray<48, float> quant20_scale = { 48, { 0.00028345437021926045, 0.00063614838290959597, 0.00021090998779982328, 0.0002211123937740922, 0.0001809696841519326, 0.0001997007493628189, 0.00035566446604207158, 0.00017837650375440717, 0.00028358213603496552, 0.00060859660152345896, 0.00071709248004481196, 0.00022768291819375008, 0.00030401392723433673, 0.00052727368893101811, 0.00010961206135107204, 0.00032753541017882526, 0.00020801648497581482, 0.00028637767536565661, 0.00018092189566232264, 0.00021889628260396421, 0.00026052028988488019, 0.00018045376054942608, 0.00028531224234029651, 0.00012323638657107949, 0.00022025049838703126, 0.00022660655668005347, 0.0012141619808971882, 0.00029585056472569704, 0.0001573386398376897, 0.00033669403637759387, 0.00021443791047204286, 0.00015956342394929379, 0.00055818114196881652, 0.00019773346139118075, 0.00062131899176165462, 0.00040098093450069427, 0.00057663093321025372, 0.00025833243853412569, 0.00018103850015904754, 0.00027140782913193107, 0.00013067762483842671, 0.00018630630802363157, 0.000248636060860008, 0.00020203509484417737, 0.0013937620678916574, 0.00028910883702337742, 0.00024489668430760503, 0.00088601920288056135, } };
const TfLiteAffineQuantization quant20 = { (TfLiteFloatArray*)&quant20_scale, (TfLiteIntArray*)&g0::quant18_zero, 0 };
const MODEL_SECTION(EI_MODEL_SECTION) ALIGN(16) int8_t tensor_data21[48*1*1*8] = { 
  /* [0][0][][] */ -127,0,-2,74,-36,41,25,-30, 
  /* [1][0][][] */ 29,73,47,21,16,-42,104,127, 
  /* [2][0][][] */ -40,-1,2,-1,-127,-13,12,3, 
  /* [3][0][][] */ 100,-3,-13,-123,-127,17,35,-18, 
  /* [4][0][][] */ -127,45,-16,-10,71,-13,45,21, 
  /* [5][0][][] */ -102,-27,21,-9,-127,8,9,85, 
  /* [6][0][][] */ -16,-127,25,-17,13,3,-3,33, 
  /* [7][0][][] */ -66,-4,3,102,127,-33,-35,6, 
  /* [8][0][][] */ 74,4,2,-127,0,-23,-45,-34, 
  /* [9][0][][] */ -5,-127,-8,-5,3,86,-52,86, 
  /* [10][0][][] */ -94,-5,-1,22,-127,71,63,-16, 
  /* [11][0][][] */ 115,10,40,13,-59,-44,-33,-127, 
  /* [12][0][][] */ 0,14,42,-7,10,-78,127,63, 
  /* [13][0][][] */ 66,-27,-7,-14,125,127,119,-43, 
  /* [14][0][][] */ 127,57,-13,19,-101,-19,-27,-19, 
  /* [15][0][][] */ -15,-127,16,-13,4,4,5,36, 
  /* [16][0][][] */ -52,-15,4,-1,-127,0,14,4, 
  /* [17][0][][] */ -26,103,-115,3,12,-127,108,-87, 
  /* [18][0][][] */ 127,-28,-43,14,-60,26,11,102, 
  /* [19][0][][] */ 127,-50,-21,-6,47,0,32,7, 
  /* [20][0][][] */ 127,24,-17,121,-2,35,2,-57, 
  /* [21][0][][] */ 8,32,-61,5,-23,90,-127,-86, 
  /* [22][0][][] */ -127,22,30,-5,-33,1,-52,-25, 
  /* [23][0][][] */ -40,-58,2,22,-127,63,76,-16, 
  /* [24][0][][] */ 127,-8,-10,-6,-88,-9,1,9, 
  /* [25][0][][] */ 23,-14,1,-24,127,52,51,-33, 
  /* [26][0][][] */ 0,-99,5,-38,5,-127,80,-51, 
  /* [27][0][][] */ -17,-127,25,-14,-3,-56,32,-8, 
  /* [28][0][][] */ -99,36,-27,15,-15,-28,127,97, 
  /* [29][0][][] */ -13,43,15,5,0,41,-103,-127, 
  /* [30][0][][] */ 127,-31,-2,8,-81,3,-45,-22, 
  /* [31][0][][] */ -10,-27,64,-16,18,-114,127,68, 
  /* [32][0][][] */ -74,24,8,6,-127,-98,-98,48, 
  /* [33][0][][] */ -27,13,0,23,-127,-58,-47,21, 
  /* [34][0][][] */ 10,-127,50,-7,-6,89,-74,62, 
  /* [35][0][][] */ -23,-49,-127,-9,-3,-68,44,-54, 
  /* [36][0][][] */ 4,127,59,9,-10,11,-20,-37, 
  /* [37][0][][] */ -127,32,36,-17,56,-31,-9,-106, 
  /* [38][0][][] */ -127,-15,-48,-12,40,23,34,110, 
  /* [39][0][][] */ -1,-36,71,-4,16,-85,127,95, 
  /* [40][0][][] */ -32,-17,-11,-37,-127,111,117,-31, 
  /* [41][0][][] */ -127,47,9,-73,-93,-95,-95,50, 
  /* [42][0][][] */ -41,-127,-100,-4,-9,68,-122,-85, 
  /* [43][0][][] */ -69,7,-15,-127,100,62,66,2, 
  /* [44][0][][] */ 127,-11,15,-93,30,-32,-14,42, 
  /* [45][0][][] */ -20,-127,-10,-13,-8,-69,77,8, 
  /* [46][0][][] */ 111,-6,-5,-24,127,-37,-30,4, 
  /* [47][0][][] */ 127,-2,-3,110,-7,24,13,-44, 
};
const TfArray<4, int> tensor_dimension21 = { 4, { 48,1,1,8 } };
const TfArray<48, float> quant21_scale = { 48, { 0.00068919564364477992, 0.001546741696074605, 0.00051281001651659608, 0.00053761631716042757, 0.00044001266360282898, 0.00048555567627772689, 0.0008647684589959681, 0.00043370758066885173, 0.0006895062979310751, 0.0014797517796978354, 0.0017435504123568535, 0.00055359199177473783, 0.00073918444104492664, 0.0012820218689739704, 0.00026651256484910846, 0.00079637498129159212, 0.00050577468937262893, 0.00069630338111892343, 0.0004398964811116457, 0.00053222803398966789, 0.00063343328656628728, 0.00043875823030248284, 0.00069371284916996956, 0.00029963898123241961, 0.00053552066674456, 0.00055097491713240743, 0.0029521335382014513, 0.00071933591971173882, 0.00038255576509982347, 0.00081864342791959643, 0.00052138784667477012, 0.00038796511944383383, 0.0013571707531809807, 0.00048077237443067133, 0.0015106851933524013, 0.0009749516611918807, 0.0014020298840478063, 0.00062811374664306641, 0.00044017998152412474, 0.00065990543225780129, 0.0003177317266818136, 0.00045298822806216776, 0.00060453783953562379, 0.00049123144708573818, 0.003388816025108099, 0.00070294400211423635, 0.00059544586110860109, 0.0021542815957218409, } };
const TfLiteAffineQuantization quant21 = { (TfLiteFloatArray*)&quant21_scale, (TfLiteIntArray*)&g0::quant18_zero, 0 };
const MODEL_SECTION(EI_MODEL_SECTION) ALIGN(16) int32_t tensor_data22[8] = { -40824, 25483, -12530, -12670, 19622, -4782, 33001, 43394, };
const TfArray<1, int> tensor_dimension22 = { 1, { 8 } };
const TfArray<8, float> quant22_scale = { 8, { 0.00043578800978139043, 0.00080389680806547403, 0.001556639326736331, 0.0015916009433567524, 0.00079743808601051569, 0.00064332719193771482, 0.00077571335714310408, 0.0010646911105141044, } };
const TfArray<8, int> quant22_zero = { 8, { 0,0,0,0,0,0,0,0 } };
const TfLiteAffineQuantization quant22 = { (TfLiteFloatArray*)&quant22_scale, (TfLiteIntArray*)&quant22_zero, 0 };
const MODEL_SECTION(EI_MODEL_SECTION) ALIGN(16) int8_t tensor_data23[8*1*1*48] = { 
  /* [0][0][][] */ -53,-12,-36,16,6,-25,0,2,-116,127,-39,115,117,7,72,-19,-7,-33,7,4,-8,-6,-22,-35,23,-95,10,65,-12,10,19,-38,-3,-78,108,20,-3,-6,-6,-18,116,-4,47,-24,-31,25,-17,-18, 
  /* [1][0][][] */ -1,33,127,5,-5,-24,1,-83,29,-1,22,6,-20,7,-6,-118,10,-55,9,5,-26,32,24,-34,-18,-8,14,1,12,-5,13,-1,-5,12,16,12,-12,-33,65,-57,11,36,-11,26,-15,8,25,-1, 
  /* [2][0][][] */ 5,-49,17,-43,33,27,-6,-29,6,-1,-2,14,-10,58,6,-1,-38,127,-25,-34,-15,22,-38,-10,122,2,0,-7,-29,-9,2,-41,-8,-14,1,10,-10,-2,-14,7,16,-20,-19,0,2,26,-25,-40, 
  /* [3][0][][] */ 1,-87,-2,8,3,-6,-10,-2,-7,-12,17,21,13,-9,49,2,-9,-21,3,23,-6,20,-23,3,6,52,1,7,-7,5,127,1,12,7,-3,-1,-21,-14,-7,12,-9,6,-9,27,-7,1,-1,34, 
  /* [4][0][][] */ -98,7,0,2,0,-38,1,7,40,-37,20,-18,-32,1,-12,-9,2,7,1,25,9,-28,14,3,-6,45,6,109,2,1,-7,-31,0,-127,-31,11,3,-6,2,1,-50,-5,-11,17,-57,3,6,6, 
  /* [5][0][][] */ -24,26,22,7,-47,11,-3,47,21,4,14,7,-5,-45,7,35,-2,-82,20,2,41,-41,7,39,10,6,-79,-42,-40,-34,20,-1,-4,-66,-1,-64,65,15,-43,13,25,-45,3,6,127,-11,-42,-3, 
  /* [6][0][][] */ -28,-25,-16,-7,37,-28,0,-26,-9,-6,32,-20,-11,40,-1,-58,-2,1,0,-25,-35,48,-6,-78,2,-10,-54,-65,24,45,-16,2,4,-59,-17,64,-67,-51,9,-56,-13,11,17,40,127,-31,41,13, 
  /* [7][0][][] */ 12,32,-73,25,-22,13,4,56,-7,-3,61,-32,9,-31,-8,-4,-18,-127,38,-41,57,38,15,-56,18,-21,21,3,-20,29,-13,4,2,35,-3,-23,-10,-53,-41,-65,-15,-27,39,60,-30,-20,-4,0, 
};
const TfArray<4, int> tensor_dimension23 = { 4, { 8,1,1,48 } };
const TfArray<8, float> quant23_scale = { 8, { 0.018520990386605263, 0.034165613353252411, 0.06615716964006424, 0.067643038928508759, 0.033891119062900543, 0.027341404929757118, 0.032967817038297653, 0.045249372720718384, } };
const TfLiteAffineQuantization quant23 = { (TfLiteFloatArray*)&quant23_scale, (TfLiteIntArray*)&g0::quant22_zero, 0 };
const MODEL_SECTION(EI_MODEL_SECTION) ALIGN(16) int32_t tensor_data24[48] = { -52330, -111, 8381, 75, 5790, -5503, 1996, 24853, 1595, 37508, -2241, 27761, -6724, -864, 27658, 8576, 490, 17509, 35026, 11542, -52, -340, 293, 14684, -8251, 29431, 45847, 35580, 3606, 1110, -1369, 1286, 1231, 17646, -6973, 17477, -11222, 16030, -22463, 124451, 25729, 18766, 12473, -1713, 15501, 3275, 1477, 122, };
const TfArray<48, float> quant24_scale = { 48, { 0.00031784092425368726, 0.00026094954228028655, 0.00018885532335843891, 0.00021057877165731043, 0.00011840806837426499, 9.7319134511053562e-05, 0.00059828581288456917, 0.00014019676018506289, 0.00011507652379805222, 0.00013145094271749258, 7.8990626207087189e-05, 0.00015599456673953682, 0.00024324173864442855, 0.00022842499311082065, 9.0554094640538096e-05, 0.00019205499847885221, 0.00020904243865516037, 0.00022440965403802693, 6.632696749875322e-05, 0.0001596634101588279, 0.00019117092597298324, 0.00019400109886191785, 0.00014838499191682786, 0.0001405571965733543, 0.00018416435341350734, 0.00012307116412557662, 0.00061782199190929532, 9.5397765107918531e-05, 0.00017915054922923446, 0.00076887581963092089, 0.00010517484042793512, 0.00017583905719220638, 0.00071600015508010983, 0.00016453952412120998, 0.00017328407557215542, 0.00014279049355536699, 0.00033079431159421802, 0.00015364619321189821, 0.00026589940534904599, 2.0605451936717145e-05, 0.000125834223581478, 5.1895716751459986e-05, 0.00012989528477191925, 0.00013296419638209045, 0.00015389680629596114, 0.0001012573775369674, 0.00020090826728846878, 9.5543291536159813e-05, } };
const TfLiteAffineQuantization quant24 = { (TfLiteFloatArray*)&quant24_scale, (TfLiteIntArray*)&g0::quant18_zero, 0 };
const MODEL_SECTION(EI_MODEL_SECTION) ALIGN(16) int8_t tensor_data25[1*3*3*48] = { 
  /* [0][0][][] */ 4,-3,20,109,4,81,-1,28,15,8,9,7,-8,-9,-45,8,-2,8,-23,-114,-6,-22,127,-10,-3,6,-5,8,-5,5,15,98,20,28,38,-28,1,34,-2,1,17,-68,-8,-9,17,3,-7,-10, 127,10,15,-127,28,87,11,11,124,127,7,43,-50,-24,5,8,127,-56,-60,-56,-101,25,-109,15,17,71,-31,-84,23,21,9,-124,5,-61,127,10,-40,-47,-6,115,-79,-98,-29,3,-35,-8,-127,23, -32,-3,8,15,-1,65,4,18,27,8,-14,31,-14,-3,16,4,-103,29,-3,77,-31,-12,-18,-6,-4,-59,-3,29,-16,5,4,-22,8,-24,16,-19,0,47,41,-13,50,38,-15,11,-43,3,-2,-6, 
  /* [0][1][][] */ 126,7,1,-98,14,-27,35,-16,9,9,-13,53,-7,-1,18,-33,0,-50,-60,-86,10,-73,-124,-18,5,99,-15,-127,-8,33,12,-108,17,-53,-2,127,-3,59,-41,40,-62,-127,39,-88,-45,-14,-13,-5, 26,-127,-127,114,-127,-127,-127,-127,-127,-96,127,-127,127,127,35,-127,-83,127,127,-106,127,127,112,127,127,-127,-127,28,-127,-127,93,127,-127,127,-29,-41,127,-127,127,127,127,-80,127,127,127,-121,102,106, 54,5,49,-13,5,-61,44,19,-24,14,-105,-8,0,-40,127,4,63,-66,-71,85,14,-45,11,-33,1,6,-38,68,20,40,1,3,33,-44,9,66,-5,64,68,-10,-81,9,-84,-31,27,-16,-11,6, 
  /* [0][2][][] */ -53,-7,25,-17,7,35,-37,22,8,-24,12,33,6,-6,-38,18,5,22,-14,105,6,-32,-16,-12,-3,22,0,51,-10,3,46,-32,-18,-44,-32,-40,-1,31,8,-23,9,-4,42,-37,-36,18,-11,17, 68,126,75,21,16,-20,124,35,18,-3,43,26,-5,-1,-90,25,-58,-56,-36,122,-37,49,12,19,32,-63,-40,29,77,1,127,21,85,-26,7,-36,-25,-17,-13,118,-27,-12,-40,45,20,-32,7,-127, -42,-4,7,-3,5,-5,-61,8,-18,-10,-40,-40,20,-9,-9,11,33,24,-9,-127,23,-10,5,-9,-7,10,-10,-55,-15,8,6,8,-20,87,-37,-23,-5,36,25,-61,4,8,-37,7,-43,127,-5,-4, 
};
const TfArray<48, float> quant25_scale = { 48, { 0.013508238829672337, 0.011090355925261974, 0.0080263512209057808, 0.0089495973661541939, 0.0050323428586125374, 0.0041360631585121155, 0.025427147746086121, 0.0059583620168268681, 0.004890752024948597, 0.0055866646580398083, 0.0033571016974747181, 0.0066297692246735096, 0.010337773710489273, 0.0097080618143081665, 0.0038485489785671234, 0.0081623373553156853, 0.0088843032717704773, 0.0095374099910259247, 0.0028188959695398808, 0.0067856945097446442, 0.0081247640773653984, 0.0082450462505221367, 0.0063063623383641243, 0.0059736808761954308, 0.0078269848600029945, 0.0052305245772004128, 0.026257434859871864, 0.0040544047951698303, 0.0076138982549309731, 0.032677222043275833, 0.0044699306599795818, 0.0074731595814228058, 0.030430005863308907, 0.0069929296150803566, 0.0073645729571580887, 0.0060685956850647926, 0.01405875850468874, 0.0065299631096422672, 0.011300724931061268, 0.00087573169730603695, 0.0053479541093111038, 0.0022055679000914097, 0.0055205496028065681, 0.0056509785354137421, 0.0065406141802668571, 0.00430343858897686, 0.0085386009886860847, 0.0040605897083878517, } };
const TfLiteAffineQuantization quant25 = { (TfLiteFloatArray*)&quant25_scale, (TfLiteIntArray*)&g0::quant18_zero, 3 };
const MODEL_SECTION(EI_MODEL_SECTION) ALIGN(16) int32_t tensor_data26[48] = { 84960, 11291, 10024, 12016, 2513, 15127, -3156, -394, 1401, 3569, 5069, 462, 2805, -1365, 1184, -3130, 8343, 18603, -411, 40048, 6700, 4192, 13193, -825, 5573, 7926, 39825, 14642, -134, -4114, 194, 3257, -3310, 13929, 4577, 10326, 11682, 7053, 32244, 2860, -1464, 3961, 1727, 5673, 6748, 3487, -2219, 4038, };
const TfArray<48, float> quant26_scale = { 48, { 5.0768201617756858e-05, 0.00020092795602977276, 0.00015342107508331537, 0.00026824034284800291, 0.00089580332860350609, 0.00033270538551732898, 0.00060882134130224586, 0.00074314972152933478, 0.00040112444548867643, 0.00038379224133677781, 0.00044383207568898797, 0.00031459872843697667, 0.00034847465576604009, 0.00034625252010300756, 0.00036742238444276154, 0.0011616022093221545, 0.0001951000012923032, 0.00022797680867370218, 0.0012536657741293311, 6.7690911237150431e-05, 0.00018089900549966842, 0.00023708643857389688, 0.00030152173712849617, 0.00062875257572159171, 0.00021753810869995505, 0.00014799842028878629, 0.00010180735262110829, 0.0002500811533536762, 0.00051656638970598578, 0.00063349853735417128, 0.00034979291376657784, 0.00025790420477278531, 0.00060072739142924547, 0.00015771889593452215, 0.000231137455557473, 0.0001805505744414404, 0.00031391443917527795, 0.00019071501446887851, 7.2769631515257061e-05, 0.0015867971815168858, 0.00040109819383360445, 0.0006974676507525146, 0.00028171666781418025, 0.00026242679450660944, 0.00017620506696403027, 0.00031329609919339418, 0.0005160836735740304, 0.00065939250634983182, } };
const TfLiteAffineQuantization quant26 = { (TfLiteFloatArray*)&quant26_scale, (TfLiteIntArray*)&g0::quant18_zero, 0 };
const MODEL_SECTION(EI_MODEL_SECTION) ALIGN(16) int8_t tensor_data27[48*1*1*8] = { 
